{"learner":
{"attributes":{},
  "feature_names":["SKU","week_num","year","discount","fincode","ui1_code","ui2_code","ui3_code","vendor","brand_code","week_num_expiration","year_expiration","week_num_creation","year_creation","day","month"],
  "feature_types":["int","c","c","float","c","c","c","c","c","c","int","int","int","int","c","c"],
  "gradient_booster":
  {"model":
  {"gbtree_model_param":
  {"num_parallel_tree":"1",
    "num_trees":"10"
  },"iteration_indptr":[0,1,2,3,4,5,6,7,8,9,10],
    "tree_info":[0,0,0,0,0,0,0,0,0,0],
    "trees":
    [
      {"base_weights":[-1.3126447E-2,2.7308286E2,-7.0172353E0,7.942089E1,4.458338E1,-2.3917046E1,-2.3939225E-1,-2.9925537E1,2.0062391E1,3.5270813E1,-4.2456737E0,-1.576089E1,-4.6391502E1,9.385695E0,7.7894664E0,2.7990759E1,1.0388807E1,-4.2063026E-3,-7.7449884E0,-2.0615995E1,-1.0758826E1,-1.02847185E1,-1.1624173E1,-1.7537526E0,1.4841645E1,9.318589E0,7.0745955E0,5.608919E0,-3.1320684E1,-7.4506383E0,-1.9842222E1,-8.831974E0,-3.2104096E0,7.637577E-1,1.5817663E1,3.4901175E0,-6.362501E-2,-1.4449597E1,1.1853773E1,-2.7828953E1,-1.1758821E1,-4.2363305E0,-5.3222113E0,-6.8450766E0,-2.4313712E0,2.1982346E0,3.8985646E0,-2.176168E1,-4.659636E0,4.1656174E1,6.6012616E0,-2.6855843E1,-7.654749E0,-1.4197972E0,-1.8485047E0,-7.216797E0,-5.075779E0,-5.203387E-1,-1.2671688E0,8.028429E0,1.0701036E1,2.215285E0,-3.7000606E0,-5.9092765E0,-7.0026956E0],
        "categories":[0,0,16,0,0,1,2,3,4,5,6,0,9,11,14,15,28,34,46,32,33,34,36,39,43,44,45,0,0],
        "categories_nodes":[0,20,25,30,31,39,43,48,51],
        "categories_segments":[0,1,2,3,4,11,19,27,28],
        "categories_sizes":[1,1,1,1,7,8,8,1,1],
        "default_left":[1,0,0,0,0,0,0,0,0,0,0,0,0,0,0,0,0,0,0,0,1,0,0,0,0,1,0,0,0,0,1,1,0,0,0,0,0,0,0,1,0,0,0,1,0,0,0,0,1,0,0,1,0,0,0,0,0,0,0,0,0,0,0,0,0],
        "id":0,
        "left_children":[1,3,5,-1,-1,7,9,11,13,15,17,19,21,-1,23,25,-1,27,-1,29,31,-1,-1,-1,33,35,-1,37,39,-1,41,43,-1,-1,45,-1,-1,47,49,51,-1,-1,-1,53,-1,-1,-1,55,57,59,61,63,-1,-1,-1,-1,-1,-1,-1,-1,-1,-1,-1,-1,-1],"loss_changes":[9.944554E6,6.0295E5,5.806121E5,0E0,0E0,3.840337E5,5.1499444E5,2.9708862E5,4.0897773E4,2.06075E4,3.883352E5,1.6476297E4,2.305125E3,0E0,1.1631085E4,5.586547E3,0E0,4.9730012E5,0E0,2.2031562E3,1.6272188E3,0E0,0E0,0E0,7.8476953E2,8.684663E2,0E0,3.0067644E5,2.5415531E4,0E0,1.2710156E3,4.5878223E2,0E0,0E0,6.1220703E1,0E0,0E0,4.06939E4,2.8617344E5,5.9328125E2,0E0,0E0,0E0,1.7255615E1,0E0,0E0,0E0,8.0528125E2,3.7556543E2,5.3266875E3,9.1698914E4,8.1903125E2,0E0,0E0,0E0,0E0,0E0,0E0,0E0,0E0,0E0,0E0,0E0,0E0,0E0],"parents":[2147483647,0,0,1,1,2,2,5,5,6,6,7,7,8,8,9,9,10,10,11,11,12,12,14,14,15,15,17,17,19,19,20,20,24,24,25,25,27,27,28,28,30,30,31,31,34,34,37,37,38,38,39,39,43,43,47,47,48,48,49,49,50,50,51,51],"right_children":[2,4,6,-1,-1,8,10,12,14,16,18,20,22,-1,24,26,-1,28,-1,30,32,-1,-1,-1,34,36,-1,38,40,-1,42,44,-1,-1,46,-1,-1,48,50,52,-1,-1,-1,54,-1,-1,-1,56,58,60,62,64,-1,-1,-1,-1,-1,-1,-1,-1,-1,-1,-1,-1,-1],"split_conditions":[NaN,3.6096E4,4.3678E4,7.942089E1,4.458338E1,2.019E3,5.4404E4,1.7812E4,2.4125E4,4.9661E4,3.2E1,1.105E4,1.9632E4,9.385695E0,3.295E4,9.5E-1,1.0388807E1,9.0611E4,-7.7449884E0,9.5E-1,NaN,-1.02847185E1,-1.1624173E1,-1.7537526E0,9.5E-1,NaN,7.0745955E0,6.4619E4,9.8255E4,-7.4506383E0,NaN,NaN,-3.2104096E0,7.637577E-1,1E0,3.4901175E0,-6.362501E-2,6.087E4,6.9997E4,NaN,-1.1758821E1,-4.2363305E0,-5.3222113E0,NaN,-2.4313712E0,2.1982346E0,3.8985646E0,9.5E-1,NaN,6.8211E4,2.019E3,NaN,-7.654749E0,-1.4197972E0,-1.8485047E0,-7.216797E0,-5.075779E0,-5.203387E-1,-1.2671688E0,8.028429E0,1.0701036E1,2.215285E0,-3.7000606E0,-5.9092765E0,-7.0026956E0],"split_indices":[4,0,0,0,0,13,0,0,0,0,12,0,0,0,0,3,0,0,0,3,2,0,0,0,3,1,0,0,0,0,2,15,0,0,3,0,0,0,0,1,0,0,0,1,0,0,0,3,2,0,13,2,0,0,0,0,0,0,0,0,0,0,0,0,0],"split_type":[1,0,0,0,0,0,0,0,0,0,0,0,0,0,0,0,0,0,0,0,1,0,0,0,0,1,0,0,0,0,1,1,0,0,0,0,0,0,0,1,0,0,0,1,0,0,0,0,1,0,0,1,0,0,0,0,0,0,0,0,0,0,0,0,0],"sum_hessian":[5.197E3,1.29E2,5.068E3,7.5E1,5.4E1,1.45E3,3.618E3,1.276E3,1.74E2,3.66E2,3.252E3,6.87E2,5.89E2,6.7E1,1.07E2,1.96E2,1.7E2,2.827E3,4.25E2,3.47E2,3.4E2,2.42E2,3.47E2,3.4E1,7.3E1,1.6E1,1.8E2,2.398E3,4.29E2,2.1E1,3.26E2,2E2,1.4E2,6E0,6.7E1,1E1,6E0,5.69E2,1.829E3,3.61E2,6.8E1,1.78E2,1.48E2,8.3E1,1.17E2,6E0,6.1E1,3.25E2,2.44E2,2.73E2,1.556E3,2.99E2,6.2E1,4.5E1,3.8E1,1.6E1,3.09E2,5.1E1,1.93E2,7.9E1,1.94E2,1.389E3,1.67E2,1.65E2,1.34E2],"tree_param":{"num_deleted":"0","num_feature":"16","num_nodes":"65","size_leaf_vector":"1"}},{"base_weights":[8.527833E-2,2.1503148E2,-5.6629634E0,6.119226E1,3.4251152E1,1.4673219E1,-1.3572177E1,9.568316E0,2.9889326E1,-5.2708135E0,-2.2385458E1,1.2992458E1,1.7873236E0,-1.9781499E-1,3.0590649E1,-1.086582E1,1.1268579E1,-2.3904078E1,1.1685133E1,1.6673204E1,9.722079E0,3.778682E0,-8.410887E-1,7.752919E0,2.6312363E1,-1.6029724E1,2.1488482E1,-3.796778E0,3.4163754E1,-2.0578083E1,-2.7691427E1,6.073175E-1,2.9691274E0,4.458696E0,3.3562973E0,-4.3142605E0,1.0133019E1,4.85153E0,2.1296353E0,2.1106246E-1,-1.3615602E0,3.4129093E0,6.3662944E0,-5.024725E0,-2.7502615E1,9.222866E0,5.403733E0,-2.7159634E0,-4.5923657E0,4.13168E0,8.276805E0,-2.28608E1,-1.6678902E1,-3.698512E1,-1.9810532E1,-1.434908E0,-3.7641174E-1,1.2579482E1,7.7324862E0,1.2859579E0,9.469602E-1,2.7191896E0,2.5576112E-1,1.07181996E-1,-3.791616E-2,-2.0287867E-1,-4.642398E-1,-1.3228182E0,-8.2259445E0,-5.7134795E0,-3.300189E1,2.8554437E0,-4.2362694E-2,-1.7759371E0,-3.0545597E0,-4.116467E0,-1.2628177E0,-6.095811E0,-2.1376188E1,-1.6059526E1,-5.102497E0,-8.30933E0,-9.399852E0,-1.5980539E1,-8.998865E0,3.3651698E0,2.7850914E0,2.145976E0,1.5414884E0,8.631401E-1,5.7694423E-1,-3.98574E-3,-9.732817E-1,-1.6024624E0,-2.452836E0,-9.245018E0,-7.6470933E0,-2.9699862E-1,-5.316375E-1,-4.1495746E-1,-8.2382244E-1,-5.8570784E-1,-1.1545786E0,-7.141613E0,-4.994158E0,-3.2890468E0,-4.2841306E0,-5.7037854E0,-3.662725E0],"categories":[0,0,1,2,3,5,6,7,8,9,10,11,12,13,14,15,1,2,3,6,7,8,11,13,15,1,6,8,11,0,1,2,3,4,6,7,8,10,11,12,13,14,15,0,0,0,0,1,6,0,0,1,2,3,4,0,1,2,3,4,5,6,7,8,9,10,11,12,13,14,15,16,17,18,19,20,21,22,23,24,25,26,27,28,29,30,33,34,37,38,39,40,2,15,2,3,4,7,8,10,11,12,13,14,15,16,17,18,19,22,23,25,28,30,31,35,11,0,0,1,2,3,4,5,6,7,0,1,5,6,7,8,9,10,11,0,1,2,3,4,5,6,7,8,9,10,11,12,13,14,15,16,17,18,19,20,21,22,23,24,25,26,27,28,29,30,31,32,33,34,35,36,37,38,39,40,42,43,3,4,5,7,2,16,0,1,2,4,5,6,7,8,9,3,12,13,14,15,17,18,0,10,13,14,21,31,0,6,0,1,2,3,4,5,6,7,0,1,2,3,4,5,6,0,1,2,3,4,5,6,7,8,9,10,11,12,13,15,16,17,18,20,21,22,23,24,25,26,27,28,29,30,31,32,33,34,35,36,37,38,39,40,41,42,43,44,45,46,47,48,49,50,51,0,0,44,45,49,50,0,0,0],"categories_nodes":[0,1,2,6,7,11,12,14,16,17,19,21,22,25,27,35,36,37,38,39,40,43,44,45,47,48,51,52,53,54,57,58,61,67,68,73,74,75,79],"categories_segments":[0,1,16,25,29,43,44,45,46,47,49,50,55,92,94,116,117,118,126,135,178,181,182,183,184,193,200,201,206,207,208,216,223,273,274,275,279,280,281],"categories_sizes":[1,15,9,4,14,1,1,1,1,2,1,5,37,2,22,1,1,8,9,43,3,1,1,1,9,7,1,5,1,1,8,7,50,1,1,4,1,1,1],"default_left":[1,1,1,0,0,0,1,1,0,0,0,1,1,0,1,0,1,1,0,1,0,1,1,0,0,1,0,1,0,0,0,0,0,0,0,1,1,1,1,1,1,0,0,1,1,1,0,1,1,0,0,1,1,1,1,0,0,1,1,0,0,1,0,0,0,0,0,1,1,0,0,0,0,1,1,1,0,0,0,1,0,0,0,0,0,0,0,0,0,0,0,0,0,0,0,0,0,0,0,0,0,0,0,0,0,0,0,0,0],"id":1,"left_children":[1,3,5,-1,-1,7,9,11,13,15,17,19,21,-1,23,25,27,29,31,33,35,37,39,-1,41,43,45,47,49,51,53,-1,-1,-1,-1,55,57,59,61,63,65,-1,-1,67,69,71,-1,73,75,-1,-1,77,79,81,83,-1,-1,85,87,-1,-1,89,-1,-1,-1,-1,-1,91,93,-1,95,-1,-1,97,99,101,-1,-1,103,105,-1,-1,-1,107,-1,-1,-1,-1,-1,-1,-1,-1,-1,-1,-1,-1,-1,-1,-1,-1,-1,-1,-1,-1,-1,-1,-1,-1,-1],"loss_changes":[6.499116E6,3.652265E5,8.242E5,0E0,0E0,1.1116731E5,2.6976888E5,2.8640414E4,7.78975E3,1.760379E5,9.284775E4,8.821219E3,1.7313623E3,0E0,1.887875E3,2.377577E5,1.6604928E5,2.0991375E4,4.796797E2,1.5489297E3,2.3413906E3,3.201145E2,7.89497E1,0E0,2.4617188E1,1.5464556E5,2.4530625E3,2.3548291E2,8.418125E2,7.7582812E3,5.7695062E4,0E0,0E0,0E0,0E0,4.3694183E1,2.1689648E3,2.8809814E1,4.3422485E1,4.368474E0,2.606659E1,0E0,0E0,7.4165537E3,1.1093406E4,4.6592993E2,0E0,3.3189392E1,2.9751465E1,0E0,0E0,1.6867812E3,6.319219E2,5.0321875E2,2.9009516E4,0E0,0E0,9.20957E1,2.5350781E2,0E0,0E0,2.516388E0,0E0,0E0,0E0,0E0,0E0,1.0466692E3,9.6659766E2,0E0,9.3984375E1,0E0,0E0,4.7734833E0,3.934424E1,1.0820801E2,0E0,0E0,9.1203125E2,1.0526953E3,0E0,0E0,0E0,1.4926172E3,0E0,0E0,0E0,0E0,0E0,0E0,0E0,0E0,0E0,0E0,0E0,0E0,0E0,0E0,0E0,0E0,0E0,0E0,0E0,0E0,0E0,0E0,0E0,0E0,0E0],"parents":[2147483647,0,0,1,1,2,2,5,5,6,6,7,7,8,8,9,9,10,10,11,11,12,12,14,14,15,15,16,16,17,17,18,18,19,19,20,20,21,21,22,22,24,24,25,25,26,26,27,27,28,28,29,29,30,30,35,35,36,36,37,37,38,38,39,39,40,40,43,43,44,44,45,45,47,47,48,48,51,51,52,52,53,53,54,54,57,57,58,58,61,61,67,67,68,68,70,70,73,73,74,74,75,75,78,78,79,79,83,83],"right_children":[2,4,6,-1,-1,8,10,12,14,16,18,20,22,-1,24,26,28,30,32,34,36,38,40,-1,42,44,46,48,50,52,54,-1,-1,-1,-1,56,58,60,62,64,66,-1,-1,68,70,72,-1,74,76,-1,-1,78,80,82,84,-1,-1,86,88,-1,-1,90,-1,-1,-1,-1,-1,92,94,-1,96,-1,-1,98,100,102,-1,-1,104,106,-1,-1,-1,108,-1,-1,-1,-1,-1,-1,-1,-1,-1,-1,-1,-1,-1,-1,-1,-1,-1,-1,-1,-1,-1,-1,-1,-1,-1],"split_conditions":[NaN,NaN,NaN,6.119226E1,3.4251152E1,2.019E3,NaN,NaN,9E-1,9E0,2.019E3,NaN,NaN,-1.9781499E-1,NaN,5E1,NaN,NaN,9.5E-1,NaN,9.5E-1,NaN,NaN,7.752919E0,1E0,NaN,9.5E-1,NaN,9.5E-1,9E0,9E0,6.073175E-1,2.9691274E0,4.458696E0,3.3562973E0,NaN,NaN,NaN,NaN,NaN,NaN,3.4129093E0,6.3662944E0,NaN,NaN,NaN,5.403733E0,NaN,NaN,4.13168E0,8.276805E0,NaN,NaN,NaN,NaN,-1.434908E0,-3.7641174E-1,NaN,NaN,1.2859579E0,9.469602E-1,NaN,2.5576112E-1,1.07181996E-1,-3.791616E-2,-2.0287867E-1,-4.642398E-1,NaN,NaN,-5.7134795E0,9.5E-1,2.8554437E0,-4.2362694E-2,NaN,NaN,NaN,-1.2628177E0,-6.095811E0,9.5E-1,NaN,-5.102497E0,-8.30933E0,-9.399852E0,9.5E-1,-8.998865E0,3.3651698E0,2.7850914E0,2.145976E0,1.5414884E0,8.631401E-1,5.7694423E-1,-3.98574E-3,-9.732817E-1,-1.6024624E0,-2.452836E0,-9.245018E0,-7.6470933E0,-2.9699862E-1,-5.316375E-1,-4.1495746E-1,-8.2382244E-1,-5.8570784E-1,-1.1545786E0,-7.141613E0,-4.994158E0,-3.2890468E0,-4.2841306E0,-5.7037854E0,-3.662725E0],"split_indices":[4,8,8,0,0,13,8,8,3,10,13,7,2,0,7,12,7,8,3,2,3,15,1,0,3,8,3,1,3,10,12,0,0,0,0,1,2,15,15,1,15,0,0,8,8,1,0,15,1,0,0,7,1,2,8,0,0,15,15,0,0,1,0,0,0,0,0,2,2,0,3,0,0,1,2,2,0,0,3,2,0,0,0,3,0,0,0,0,0,0,0,0,0,0,0,0,0,0,0,0,0,0,0,0,0,0,0,0,0],"split_type":[1,1,1,0,0,0,1,1,0,0,0,1,1,0,1,0,1,1,0,1,0,1,1,0,0,1,0,1,0,0,0,0,0,0,0,1,1,1,1,1,1,0,0,1,1,1,0,1,1,0,0,1,1,1,1,0,0,1,1,0,0,1,0,0,0,0,0,1,1,0,0,0,0,1,1,1,0,0,0,1,0,0,0,0,0,0,0,0,0,0,0,0,0,0,0,0,0,0,0,0,0,0,0,0,0,0,0,0,0],"sum_hessian":[5.258E3,1.36E2,5.122E3,8.5E1,5.1E1,1.434E3,3.688E3,1.075E3,3.59E2,1.9E3,1.788E3,7.46E2,3.29E2,8E0,3.51E2,1.42E3,4.8E2,1.712E3,7.6E1,3.49E2,3.97E2,1.87E2,1.42E2,2.41E2,1.1E2,1.225E3,1.95E2,2.9E2,1.9E2,9.15E2,7.97E2,6E0,7E1,1.96E2,1.53E2,1.1E1,3.86E2,1.12E2,7.5E1,4.7E1,9.5E1,4E0,1.06E2,6.26E2,5.99E2,1.7E1,1.78E2,1.25E2,1.65E2,6E0,1.84E2,5.74E2,3.41E2,3.64E2,4.33E2,6E0,5E0,1.89E2,1.97E2,6.7E1,4.5E1,4.7E1,2.8E1,2.9E1,1.8E1,5.2E1,4.3E1,2.91E2,3.35E2,3.65E2,2.34E2,1.3E1,4E0,3.5E1,9E1,1.02E2,6.3E1,2.01E2,3.73E2,3.05E2,3.6E1,1.94E2,1.7E2,3.58E2,7.5E1,6.7E1,1.22E2,9.7E1,1E2,9E0,3.8E1,1.98E2,9.3E1,1.94E2,1.41E2,3E1,2.04E2,1.8E1,1.7E1,2.2E1,6.8E1,3.2E1,7E1,1.7E1,3.56E2,1.4E2,1.65E2,2.5E1,3.33E2],"tree_param":{"num_deleted":"0","num_feature":"16","num_nodes":"109","size_leaf_vector":"1"}},{"base_weights":[8.866328E-2,1.6407521E2,-4.090842E0,4.6769295E1,2.6079586E1,5.848052E0,-1.3280385E1,-5.9682975E0,9.159902E0,-1.5732859E1,1.629607E1,1.9545439E1,2.7044542E0,-7.4622374E0,-1.9480982E1,6.072252E0,4.1235723E0,2.4804316E1,1.3328371E1,5.331151E0,1.7478517E0,-9.227144E0,8.794413E0,-1.6379456E1,-2.8357786E1,2.1499746E0,-4.1915562E-2,2.5816921E1,4.6585245E0,-6.0300994E-1,1.36564E1,7.495602E0,-7.1260124E-1,-1.2040883E1,-6.3778257E0,3.6181805E0,2.276031E0,-1.2570026E1,-1.7745108E1,-6.3147497E0,-7.127787E0,3.407683E0,6.222342E0,-1.7161787E-2,-2.1381722E-1,5.0332108E0,1.2737007E1,-3.237064E0,7.7843513E0,-1.9160208E0,1.4072134E0,-1.1317272E1,-1.6441872E1,-5.244412E0,-7.854161E0,1.1060178E0,4.6744236E-1,-1.1228418E1,-1.3939515E1,-1.8652172E1,-1.6351744E1,3.393147E0,2.564785E0,4.6836773E-1,-1.5610406E0,2.2810395E0,1.3921677E0,-1.7619649E-1,-7.335204E-1,6.6250324E-1,-1.4253646E-1,-2.345501E0,-3.1485362E0,-5.1511683E0,-3.5466604E0,-1.0611941E0,-1.6367872E0,-1.54654E0,-2.0388677E0,-2.2408302E0,-3.0600023E0,-5.2842836E0,-3.2365992E0,-4.219397E0,-4.680468E0,-5.4894643E0,-3.8139427E0],"categories":[0,1,6,7,8,11,15,1,3,4,5,6,7,8,11,13,14,15,1,6,16,1,3,4,5,6,7,8,9,10,11,12,13,14,15,0,1,2,3,4,6,7,8,9,10,11,12,13,14,15,0,23,1,3,17,22,27,29,0,0,1,2,3,4,5,6,7,8,9,10,11,12,13,14,15,16,17,18,19,20,21,22,23,24,25,26,27,28,29,30,31,32,33,34,35,36,37,38,39,40,41,42,43,44,45,46,48,49,50,51,0,6,7,8,9,10,11,12,13,14,15,16,17,19,21,22,23,30,35,37,43,0,0,1,2,3,4,5,6,7,8,9,10,11,0,0,0,0,0,1,2,3,3,4,5,6,7,8,0,0,1,2,4,5,6,7,8,11,13,14,15,17,19,20,21,22,24,25,28,30,36,45,46,49,51],"categories_nodes":[0,2,8,14,15,17,20,24,29,33,34,35,37,46,47,48,49,50,51,53,54,57,59],"categories_segments":[0,1,7,18,20,21,35,50,51,52,58,59,110,131,132,144,145,146,147,148,152,158,159],"categories_sizes":[1,6,11,2,1,14,15,1,1,6,1,51,21,1,12,1,1,1,1,4,6,1,26],"default_left":[1,0,1,0,0,0,0,0,1,0,0,0,0,0,1,1,0,1,0,0,1,0,0,0,1,0,0,0,0,1,0,0,0,1,1,1,0,1,0,0,0,0,0,0,0,0,1,1,1,1,1,1,0,1,1,0,0,1,0,1,0,0,0,0,0,0,0,0,0,0,0,0,0,0,0,0,0,0,0,0,0,0,0,0,0,0,0],"id":2,"left_children":[1,3,5,-1,-1,7,9,-1,11,13,15,17,19,21,23,25,-1,27,29,-1,31,33,35,37,39,-1,-1,41,-1,43,45,47,49,51,53,55,-1,57,59,-1,-1,-1,-1,-1,-1,-1,61,63,65,67,69,71,73,75,77,-1,-1,79,81,83,85,-1,-1,-1,-1,-1,-1,-1,-1,-1,-1,-1,-1,-1,-1,-1,-1,-1,-1,-1,-1,-1,-1,-1,-1,-1,-1],"loss_changes":[3.6126918E6,2.0565975E5,4.6953684E5,0E0,0E0,2.5225212E5,1.9399978E5,0E0,1.4951402E5,7.632119E4,1.8786055E3,2.7610656E4,2.5760906E4,2.2202844E4,4.6241438E4,3.5089795E2,0E0,1.9705625E3,1.8127969E3,0E0,1.859016E4,5.497324E3,2.4648584E2,6.3218125E3,4.3171875E2,0E0,0E0,5.355E2,0E0,1.1893272E0,2.33775E3,1.2477207E3,2.3523674E3,9.161758E2,5.369746E2,7.357422E0,0E0,4.5254688E2,8.5221875E2,0E0,0E0,0E0,0E0,0E0,0E0,0E0,8.481133E2,2.0243204E2,1.2621953E3,7.951218E2,9.1471027E2,7.0884766E2,5.3882812E1,2.2422852E2,7.905078E1,0E0,0E0,3.827539E2,2.218125E2,1.5501562E2,6.08125E2,0E0,0E0,0E0,0E0,0E0,0E0,0E0,0E0,0E0,0E0,0E0,0E0,0E0,0E0,0E0,0E0,0E0,0E0,0E0,0E0,0E0,0E0,0E0,0E0,0E0,0E0],"parents":[2147483647,0,0,1,1,2,2,5,5,6,6,8,8,9,9,10,10,11,11,12,12,13,13,14,14,15,15,17,17,18,18,20,20,21,21,22,22,23,23,24,24,27,27,29,29,30,30,31,31,32,32,33,33,34,34,35,35,37,37,38,38,46,46,47,47,48,48,49,49,50,50,51,51,52,52,53,53,54,54,57,57,58,58,59,59,60,60],"right_children":[2,4,6,-1,-1,8,10,-1,12,14,16,18,20,22,24,26,-1,28,30,-1,32,34,36,38,40,-1,-1,42,-1,44,46,48,50,52,54,56,-1,58,60,-1,-1,-1,-1,-1,-1,-1,62,64,66,68,70,72,74,76,78,-1,-1,80,82,84,86,-1,-1,-1,-1,-1,-1,-1,-1,-1,-1,-1,-1,-1,-1,-1,-1,-1,-1,-1,-1,-1,-1,-1,-1,-1,-1],"split_conditions":[NaN,3.6096E4,NaN,4.6769295E1,2.6079586E1,1.9632E4,5E1,-5.9682975E0,NaN,3.8767E4,9.5E-1,6.9997E4,2.4125E4,1.7812E4,NaN,NaN,4.1235723E0,NaN,9E-1,5.331151E0,NaN,1.105E4,1E0,2.2E3,NaN,2.1499746E0,-4.1915562E-2,9.5E-1,4.6585245E0,NaN,7.2784E4,9.5E-1,8.0631E4,NaN,NaN,NaN,2.276031E0,NaN,8.4395E4,-6.3147497E0,-7.127787E0,3.407683E0,6.222342E0,-1.7161787E-2,-2.1381722E-1,5.0332108E0,NaN,NaN,NaN,NaN,NaN,NaN,9E-1,NaN,NaN,1.1060178E0,4.6744236E-1,NaN,9E-1,NaN,9.5E-1,3.393147E0,2.564785E0,4.6836773E-1,-1.5610406E0,2.2810395E0,1.3921677E0,-1.7619649E-1,-7.335204E-1,6.6250324E-1,-1.4253646E-1,-2.345501E0,-3.1485362E0,-5.1511683E0,-3.5466604E0,-1.0611941E0,-1.6367872E0,-1.54654E0,-2.0388677E0,-2.2408302E0,-3.0600023E0,-5.2842836E0,-3.2365992E0,-4.219397E0,-4.680468E0,-5.4894643E0,-3.8139427E0],"split_indices":[4,0,8,0,0,0,12,0,8,0,3,0,0,0,8,1,0,8,3,0,8,0,3,11,2,0,0,3,0,1,0,3,0,1,2,1,0,1,0,0,0,0,0,0,0,0,2,1,2,2,2,2,3,15,15,0,0,2,3,1,3,0,0,0,0,0,0,0,0,0,0,0,0,0,0,0,0,0,0,0,0,0,0,0,0,0,0],"split_type":[1,0,1,0,0,0,0,0,1,0,0,0,0,0,1,1,0,1,0,0,1,0,0,0,1,0,0,0,0,1,0,0,0,1,1,1,0,1,0,0,0,0,0,0,0,0,1,1,1,1,1,1,0,1,1,0,0,1,0,1,0,0,0,0,0,0,0,0,0,0,0,0,0,0,0,0,0,0,0,0,0,0,0,0,0,0,0],"sum_hessian":[5.269E3,1.3E2,5.139E3,8.1E1,4.9E1,2.469E3,2.67E3,2.39E2,2.23E3,2.466E3,2.04E2,8.54E2,1.376E3,7.7E2,1.696E3,1.8E1,1.86E2,4.61E2,3.93E2,6.3E1,1.313E3,6.95E2,7.5E1,1.259E3,4.37E2,1.2E1,6E0,3.84E2,7.7E1,9E0,3.84E2,3.93E2,9.2E2,3.48E2,3.47E2,1E1,6.5E1,3.35E2,9.24E2,1.95E2,2.42E2,8E0,3.76E2,4E0,5E0,4E1,3.44E2,1E1,3.83E2,5.87E2,3.33E2,3.02E2,4.6E1,1.99E2,1.48E2,5E0,5E0,1.74E2,1.61E2,5.52E2,3.72E2,1.96E2,1.48E2,4E0,6E0,2E2,1.83E2,2.91E2,2.96E2,1.98E2,1.35E2,1.7E2,1.32E2,8E0,3.8E1,1.35E2,6.4E1,5.2E1,9.6E1,8.3E1,9.1E1,5E0,1.56E2,2.74E2,2.78E2,1.8E1,3.54E2],"tree_param":{"num_deleted":"0","num_feature":"16","num_nodes":"87","size_leaf_vector":"1"}},{"base_weights":[-1.5029989E-1,1.2342906E2,-3.2584348E0,3.543866E1,1.9938105E1,8.571709E0,-7.8072157E0,1.7273617E1,5.5567865E0,-2.9023662E0,-1.3137955E1,-9.281197E-2,1.7767515E1,7.524839E0,1.0533019E0,-6.17503E0,6.860677E0,-1.3978479E1,6.807111E0,4.6140146E0,1.6154606E1,5.5083947E0,9.736086E0,2.194956E0,-5.157131E-1,-9.208202E0,1.2513519E1,-2.3152788E0,1.9910559E1,-9.191322E0,-1.5210392E1,2.7426813E0,1.7528383E0,1.8702043E0,3.8966389E0,-2.418733E0,5.737878E0,1.0875195E1,8.082481E0,2.9690187E0,5.9478647E-1,3.448368E-1,-9.673019E-1,-2.9321568E0,-1.590277E1,4.758104E0,3.1541104E0,-1.4566072E0,-3.0719209E0,2.6387637E0,4.8229074E0,-8.640994E0,-1.3286505E1,-1.2011604E1,-2.1615925E1,8.4733355E-1,3.7436387E-1,6.971658E0,4.399649E0,3.0566676E0,2.3370261E0,2.0580347E0,1.6174209E0,1.088594E0,2.645261E0,9.3931705E-1,-1.7773725E-1,2.4836478E-1,1.5018421E-1,-5.2091944E-1,-1.4051806E0,-4.7827463E0,-6.941709E-1,-1.8812689E1,-1.3825247E1,1.594741E0,-3.0381138E-2,4.352265E-2,-1.5756251E0,-1.0047863E0,-2.7078986E0,-7.6374106E0,-1.0007805E1,-3.6494339E0,-2.5175774E0,-1.3415901E1,-9.608601E0,-2.019103E1,-5.418333E0,1.8785338E-1,1.7356375E0,1.2453086E0,7.292999E-1,7.5254625E-1,5.3006756E-1,2.6363036E-1,1.0558837E-1,-1.380297E-1,3.132609E-3,6.795885E-2,-4.522847E-2,-8.783865E-2,-1.7475359E-1,-2.8881454E-1,-4.647553E-1,-9.4026065E-1,-1.4210609E0,3.6814652E-2,-5.74739E-1,-4.282798E0,-5.292442E0,-3.0421665E0,-3.5098972E0,-3.003509E-1,-4.450127E-1,-1.9091946E-1,-8.0009973E-1,-1.3943402E0,-2.0459146E0,-2.1492486E0,-2.602236E0,-3.5704613E0,-2.9846902E0,-2.0152347E0,-2.5337882E0,-4.486614E0,-5.2484117E0],"categories":[0,1,2,3,6,7,8,11,13,15,1,6,8,11,1,2,3,4,5,6,7,8,9,10,11,12,13,14,15,0,0,0,1,2,3,0,1,2,3,4,5,6,7,8,9,10,11,12,13,14,15,16,17,18,19,20,21,22,23,24,25,26,27,28,29,30,34,37,38,39,40,2,15,1,2,4,6,7,8,9,10,11,12,13,14,15,16,17,18,19,21,23,31,1,3,17,22,29,1,6,0,1,2,3,4,5,6,7,8,9,10,11,12,13,14,15,16,17,18,19,20,21,22,23,24,25,26,27,28,29,30,31,32,33,34,35,36,37,38,39,40,41,42,43,44,45,46,48,49,50,51,0,0,1,2,3,4,5,6,7,0,1,2,3,4,5,0,1,2,3,4,5,6,7,8,9,10,11,12,13,14,15,16,17,18,19,20,21,22,23,24,25,26,27,28,29,30,32,33,34,35,36,37,38,39,40,42,43,44,45,46,47,48,51,0,1,3,5,6,7,0,1,2,3,4,5,6,7,8,9,10,11,12,13,14,15,16,17,18,19,20,21,22,23,24,25,26,27,28,29,30,31,32,33,34,35,36,37,38,39,40,41,42,43,44,45,46,47,48,49,3,4,5,16,0,1,2,3,4,5,6,7,8,9,10,11,12,13,14,15,16,17,18,19,20,21,22,23,24,25,26,27,28,29,30,31,32,33,34,35,36,37,38,39,40,41,42,43,44,45,46,47,49,50,0,0,0,1,2,3,4,0,1,2,3,4,5,6,7,0,1,4,5,6,7,8,9,10,11,0,1,2,3,4,5,0,1,2,3,4,5,6,7,8,9,10,11,12,13,14,15,16,17,18,19,20,21,22,23,24,25,26,27,28,29,30,31,32,33,34,36,26,34,38,15,18,0,0,0,19,24,25,26,33,42,44,50,0,1,2,5,6,7,8,9,10,11,19,21,22,23,24,25,26,27,28,30,31,32,34,36,42,45,49,0,1,5,6,7,0,0,1,2,3,4,5,6,11,3,4,5,6,7,0,1,5,6,7,8,9,10,11,12,13,14,15,16,17,19,20,21,22,23,24,31,35,37,0,1,2,3,4],"categories_nodes":[0,2,6,12,14,22,23,24,25,27,29,30,31,36,37,38,39,40,41,42,45,47,51,54,58,64,65,66,68,69,70,71,72,73,74,78,80,81,82,86,87],"categories_segments":[0,1,10,14,29,30,31,35,71,73,93,98,100,151,152,160,166,214,220,270,273,274,324,325,326,331,339,349,355,391,394,396,397,398,407,434,439,440,448,453,477],"categories_sizes":[1,9,4,15,1,1,4,36,2,20,5,2,51,1,8,6,48,6,50,3,1,50,1,1,5,8,10,6,36,3,2,1,1,9,27,5,1,8,5,24,5],"default_left":[1,0,1,0,0,0,1,0,0,0,0,0,1,0,1,0,0,0,0,0,0,0,1,1,1,1,0,1,0,1,1,1,0,0,0,0,1,1,1,1,1,1,1,0,0,1,0,1,0,0,0,1,0,0,1,0,0,0,1,0,0,0,0,0,1,1,1,0,1,1,1,1,1,1,1,0,0,0,1,0,1,1,1,0,0,0,1,1,0,0,0,0,0,0,0,0,0,0,0,0,0,0,0,0,0,0,0,0,0,0,0,0,0,0,0,0,0,0,0,0,0,0,0,0,0,0,0],"id":3,"left_children":[1,3,5,-1,-1,7,9,11,13,15,17,-1,19,21,23,25,27,29,31,-1,33,35,37,39,41,43,45,47,49,51,53,55,-1,-1,-1,-1,57,59,61,63,65,67,69,71,73,75,-1,77,79,-1,-1,81,83,85,87,-1,-1,89,91,-1,-1,-1,-1,-1,93,95,97,-1,99,101,103,105,107,109,111,-1,-1,-1,113,-1,115,117,119,-1,-1,121,123,125,-1,-1,-1,-1,-1,-1,-1,-1,-1,-1,-1,-1,-1,-1,-1,-1,-1,-1,-1,-1,-1,-1,-1,-1,-1,-1,-1,-1,-1,-1,-1,-1,-1,-1,-1,-1,-1,-1,-1],"loss_changes":[2.0353378E6,1.16545125E5,2.782252E5,0E0,0E0,3.757108E4,9.758791E4,3.231086E3,9.455254E3,6.2219406E4,3.0089094E4,0E0,5.619219E2,3.2544648E3,5.8560944E2,8.2762484E4,5.8607484E4,9.978031E3,1.3215454E2,0E0,7.920703E1,1.4588828E3,5.7091406E2,2.3124866E2,5.415468E1,5.2676977E4,1.00397266E3,1.8124768E2,2.3344531E2,6.7588086E2,2.7677469E4,2.3071976E0,0E0,0E0,0E0,0E0,6.0306836E2,3.006289E2,3.923633E1,5.084131E1,1.7168394E1,5.965382E0,1.646672E1,2.6829106E3,3.3985469E3,1.709671E2,0E0,2.7431396E1,4.9019287E1,0E0,0E0,3.4998633E2,4.881299E1,2.9411562E3,2.0217188E2,0E0,0E0,3.4545703E2,1.8668555E2,0E0,0E0,0E0,0E0,0E0,1.4592407E1,2.6168556E0,1.7045465E0,0E0,1.8570018E0,9.115572E-1,1.4651718E0,3.2385254E2,4.287931E2,3.378672E2,1.4113281E2,0E0,0E0,0E0,8.381073E0,0E0,1.3988684E2,2.542793E2,1.1717773E1,0E0,0E0,6.1547656E2,3.0120508E2,7.8625E1,0E0,0E0,0E0,0E0,0E0,0E0,0E0,0E0,0E0,0E0,0E0,0E0,0E0,0E0,0E0,0E0,0E0,0E0,0E0,0E0,0E0,0E0,0E0,0E0,0E0,0E0,0E0,0E0,0E0,0E0,0E0,0E0,0E0,0E0,0E0,0E0,0E0,0E0,0E0],"parents":[2147483647,0,0,1,1,2,2,5,5,6,6,7,7,8,8,9,9,10,10,12,12,13,13,14,14,15,15,16,16,17,17,18,18,20,20,21,21,22,22,23,23,24,24,25,25,26,26,27,27,28,28,29,29,30,30,31,31,36,36,37,37,38,38,39,39,40,40,41,41,42,42,43,43,44,44,45,45,47,47,48,48,51,51,52,52,53,53,54,54,57,57,58,58,64,64,65,65,66,66,68,68,69,69,70,70,71,71,72,72,73,73,74,74,78,78,80,80,81,81,82,82,85,85,86,86,87,87],"right_children":[2,4,6,-1,-1,8,10,12,14,16,18,-1,20,22,24,26,28,30,32,-1,34,36,38,40,42,44,46,48,50,52,54,56,-1,-1,-1,-1,58,60,62,64,66,68,70,72,74,76,-1,78,80,-1,-1,82,84,86,88,-1,-1,90,92,-1,-1,-1,-1,-1,94,96,98,-1,100,102,104,106,108,110,112,-1,-1,-1,114,-1,116,118,120,-1,-1,122,124,126,-1,-1,-1,-1,-1,-1,-1,-1,-1,-1,-1,-1,-1,-1,-1,-1,-1,-1,-1,-1,-1,-1,-1,-1,-1,-1,-1,-1,-1,-1,-1,-1,-1,-1,-1,-1,-1,-1,-1],"split_conditions":[NaN,3.6096E4,NaN,3.543866E1,1.9938105E1,7.2784E4,NaN,9E-1,8.9272E4,9E0,2.019E3,-9.281197E-2,NaN,7.8833E4,NaN,5E1,6.4619E4,1.105E4,1E0,4.6140146E0,1E0,9E-1,NaN,NaN,NaN,NaN,9.5E-1,NaN,9.5E-1,NaN,NaN,NaN,1.7528383E0,1.8702043E0,3.8966389E0,-2.418733E0,NaN,NaN,NaN,NaN,NaN,NaN,NaN,1.7812E4,1.9632E4,NaN,3.1541104E0,NaN,3.295E4,2.6387637E0,4.8229074E0,NaN,9.5E-1,9E0,NaN,8.4733355E-1,3.7436387E-1,9.5E-1,NaN,3.0566676E0,2.3370261E0,2.0580347E0,1.6174209E0,1.088594E0,NaN,NaN,NaN,2.4836478E-1,NaN,NaN,NaN,NaN,NaN,NaN,NaN,1.594741E0,-3.0381138E-2,4.352265E-2,NaN,-1.0047863E0,NaN,NaN,NaN,-3.6494339E0,-2.5175774E0,5.7561E4,NaN,NaN,-5.418333E0,1.8785338E-1,1.7356375E0,1.2453086E0,7.292999E-1,7.5254625E-1,5.3006756E-1,2.6363036E-1,1.0558837E-1,-1.380297E-1,3.132609E-3,6.795885E-2,-4.522847E-2,-8.783865E-2,-1.7475359E-1,-2.8881454E-1,-4.647553E-1,-9.4026065E-1,-1.4210609E0,3.6814652E-2,-5.74739E-1,-4.282798E0,-5.292442E0,-3.0421665E0,-3.5098972E0,-3.003509E-1,-4.450127E-1,-1.9091946E-1,-8.0009973E-1,-1.3943402E0,-2.0459146E0,-2.1492486E0,-2.602236E0,-3.5704613E0,-2.9846902E0,-2.0152347E0,-2.5337882E0,-4.486614E0,-5.2484117E0],"split_indices":[4,0,8,0,0,0,8,3,0,10,13,0,8,0,2,12,0,0,3,0,3,3,2,15,1,8,3,1,3,1,8,1,0,0,0,0,2,15,15,1,1,1,15,0,0,1,0,1,0,0,0,2,3,10,2,0,0,3,15,0,0,0,0,0,15,15,1,0,1,1,1,2,2,1,1,0,0,0,15,0,2,15,15,0,0,0,1,15,0,0,0,0,0,0,0,0,0,0,0,0,0,0,0,0,0,0,0,0,0,0,0,0,0,0,0,0,0,0,0,0,0,0,0,0,0,0,0],"split_type":[1,0,1,0,0,0,1,0,0,0,0,0,1,0,1,0,0,0,0,0,0,0,1,1,1,1,0,1,0,1,1,1,0,0,0,0,1,1,1,1,1,1,1,0,0,1,0,1,0,0,0,1,0,0,1,0,0,0,1,0,0,0,0,0,1,1,1,0,1,1,1,1,1,1,1,0,0,0,1,0,1,1,1,0,0,0,1,1,0,0,0,0,0,0,0,0,0,0,0,0,0,0,0,0,0,0,0,0,0,0,0,0,0,0,0,0,0,0,0,0,0,0,0,0,0,0,0],"sum_hessian":[5.297E3,1.29E2,5.168E3,7.8E1,5.1E1,1.435E3,3.733E3,3.68E2,1.067E3,1.945E3,1.788E3,1E1,3.58E2,7.42E2,3.25E2,1.457E3,4.88E2,1.716E3,7.2E1,1.78E2,1.8E2,3.9E2,3.52E2,1.88E2,1.37E2,1.254E3,2.03E2,2.87E2,2.01E2,3.53E2,1.363E3,9E0,6.3E1,4E0,1.76E2,5E0,3.85E2,2.05E2,1.47E2,1.26E2,6.2E1,4.7E1,9E1,6.48E2,6.06E2,1.7E1,1.86E2,1.36E2,1.51E2,7E0,1.94E2,3.14E2,3.9E1,9.11E2,4.52E2,4E0,5E0,1.98E2,1.87E2,7.1E1,1.34E2,1.01E2,4.6E1,1.9E1,1.07E2,4.3E1,1.9E1,9E0,3.8E1,4.6E1,4.4E1,3.54E2,2.94E2,2.49E2,3.57E2,1.2E1,5E0,9E0,1.27E2,3.4E1,1.17E2,1.85E2,1.29E2,2E1,1.9E1,5.72E2,3.39E2,2E2,2.52E2,9E0,1.89E2,1.15E2,7.2E1,4.6E1,6.1E1,3.1E1,1.2E1,6E0,1.3E1,2.8E1,1E1,2.9E1,1.7E1,3.5E1,9E0,2.07E2,1.47E2,1.97E2,9.7E1,2.01E2,4.8E1,1.63E2,1.94E2,6.3E1,6.4E1,3E1,8.7E1,6.5E1,1.2E2,6.5E1,6.4E1,2.12E2,3.6E2,1.59E2,1.8E2,1.17E2,8.3E1],"tree_param":{"num_deleted":"0","num_feature":"16","num_nodes":"127","size_leaf_vector":"1"}},{"base_weights":[1.7217843E-1,9.767518E1,-2.3977456E0,2.7322056E1,1.5341482E1,-8.094191E0,-1.8481568E-2,-1.0152833E1,6.4233546E0,1.1948945E1,-1.3954643E0,-5.3816876E0,-1.5661826E1,3.1574206E0,2.1920962E0,9.490507E0,1.4764657E1,6.3091315E-2,-1.0883593E1,-7.0237913E0,-3.690715E0,-1.477928E1,-4.1053023E0,-3.460152E0,5.290887E0,4.221854E0,1.0044506E1,3.7789297E0,3.2102528E0,2.0165894E0,-1.081743E1,-9.965254E0,-1.2380298E1,-6.1418304E0,-8.527579E0,-3.013023E0,-4.6464567E0,-4.3479557E0,-1.4099795E1,-3.7889588E-1,-8.7568367E-1,4.799569E-1,5.697319E0,5.598048E0,-2.4331775E-2,1.0951525E1,2.1281903E0,-4.789023E0,4.1480274E0,-9.59965E0,-3.9037488E0,-9.60428E0,-3.0268307E0,-3.9142385E0,-2.8698945E0,-5.3500595E0,-1.7232687E0,-2.564784E0,-7.727162E0,-2.1835804E0,-4.0610833E0,-4.2311993E0,-1.256302E0,-3.0855646E0,-3.6234853E0,1.5694611E0,1.1607597E0,1.8105884E0,8.66406E-1,2.6804914E0,1.7062465E0,-7.2704782E0,-1.5695188E0,1.3603758E1,2.069825E0,-8.778527E0,-1.2005299E1,-2.065227E0,-2.481227E0,-1.0080843E0,-1.4789917E0,-1.5220162E0,-2.016063E0,-4.0931463E-1,-9.068755E-1,-7.7909577E-1,-1.0559283E0,-8.3093095E-1,-1.0899711E0,-2.8921945E0,-1.6721164E0,-2.2831254E-1,-4.7688854E-1,-9.486364E-2,3.3264663E0,7.70952E-1,-2.5516386E0,-1.718474E0,-2.5232787E0,-3.9731524E0,-2.7074506E0],"categories":[0,0,0,1,2,3,4,5,0,1,2,3,4,5,6,7,8,9,11,12,13,14,18,36,45,47,51,1,3,6,12,16,17,18,19,20,21,22,23,24,27,29,49,0,1,4,5,7,8,9,13,16,17,18,19,21,22,25,26,28,31,34,41,0,1,2,3,4,5,6,7,8,9,10,11,12,13,14,15,17,18,16,0,1,2,3,4,5,0,0,0,0,0,1,2,3,4,5,7,8,9,10,11,13,14,15,17,21,22,23,27,28,29,42,43,44,0,1,2,3,4,5,6,7,8,10,0,1,2,3,4,5,6,7,8,9,10,11,12,13,14,15,16,17,18,19,20,21,22,23,24,25,26,27,28,29,30,31,32,33,34,35,36,37,38,39,40,41,42,44,45,46,47,48,49,50,51,0,0,9,10,11,12,13,15,17,18,34,46,10,15,16,17,19,20,21,23,24,27,28,29,30,31,32,34,35,39,0,1,2,3,6,7,0,0,1,2,3,5,6,7,8,9,0,1,4,5,7,8,9,13,16,22,25,41,0,1,2,3,4,5,0],"categories_nodes":[0,12,16,18,19,20,23,25,26,31,33,35,36,38,42,43,45,49,51,55,58,59,60,61,72,75],"categories_segments":[0,1,2,8,27,43,63,81,82,88,89,90,91,92,116,126,177,178,189,207,213,214,218,223,235,241],"categories_sizes":[1,1,6,19,16,20,18,1,6,1,1,1,1,24,10,51,1,11,18,6,1,4,5,12,6,1],"default_left":[1,0,0,0,0,0,0,0,0,0,0,0,1,0,0,0,1,0,1,1,1,0,0,1,0,1,1,0,0,0,0,1,0,1,0,1,1,0,1,0,0,0,1,1,0,1,0,0,0,1,0,1,0,0,0,1,0,0,1,1,1,1,0,0,0,0,0,0,0,0,0,0,1,0,0,1,0,0,0,0,0,0,0,0,0,0,0,0,0,0,0,0,0,0,0,0,0,0,0,0,0],"id":4,"left_children":[1,3,5,-1,-1,7,9,11,13,15,17,19,21,-1,23,25,27,29,31,33,35,37,-1,39,41,43,45,-1,-1,47,49,51,53,55,57,59,61,-1,63,-1,-1,-1,65,67,-1,69,-1,71,73,75,-1,77,-1,-1,-1,79,-1,-1,81,83,85,87,-1,-1,-1,-1,-1,-1,-1,-1,-1,89,91,93,95,97,99,-1,-1,-1,-1,-1,-1,-1,-1,-1,-1,-1,-1,-1,-1,-1,-1,-1,-1,-1,-1,-1,-1,-1,-1],"loss_changes":[1.3172889E6,6.765875E4,6.941767E4,0E0,0E0,4.516536E4,5.956849E4,3.4656812E4,5.361176E3,2.4339648E3,4.4869953E4,1.9422188E3,5.511875E2,0E0,2.0682773E3,5.426992E2,1.7472656E1,5.976733E4,4.631172E2,4.1909375E2,2.1160596E2,6.443594E2,0E0,8.505768E0,8.760474E1,1.2722101E2,8.491797E1,0E0,0E0,3.4601492E4,2.7062031E3,1.3662695E2,3.516797E1,1.5147949E2,1.3999707E2,1.7088477E2,1.1135986E1,0E0,2.1483594E2,0E0,0E0,0E0,1.3465332E1,3.1433563E1,0E0,9.9765625E0,0E0,4.531658E3,3.5653117E4,5.8516797E2,0E0,8.732617E1,0E0,0E0,0E0,9.95061E1,0E0,0E0,3.659619E1,8.2141235E1,9.157227E0,4.1730957E0,0E0,0E0,0E0,0E0,0E0,0E0,0E0,0E0,0E0,3.386797E2,6.22312E1,1.4218203E3,2.195053E4,6.724629E2,7.621875E1,0E0,0E0,0E0,0E0,0E0,0E0,0E0,0E0,0E0,0E0,0E0,0E0,0E0,0E0,0E0,0E0,0E0,0E0,0E0,0E0,0E0,0E0,0E0,0E0],"parents":[2147483647,0,0,1,1,2,2,5,5,6,6,7,7,8,8,9,9,10,10,11,11,12,12,14,14,15,15,16,16,17,17,18,18,19,19,20,20,21,21,23,23,24,24,25,25,26,26,29,29,30,30,31,31,32,32,33,33,34,34,35,35,36,36,38,38,42,42,43,43,45,45,47,47,48,48,49,49,51,51,55,55,58,58,59,59,60,60,61,61,71,71,72,72,73,73,74,74,75,75,76,76],"right_children":[2,4,6,-1,-1,8,10,12,14,16,18,20,22,-1,24,26,28,30,32,34,36,38,-1,40,42,44,46,-1,-1,48,50,52,54,56,58,60,62,-1,64,-1,-1,-1,66,68,-1,70,-1,72,74,76,-1,78,-1,-1,-1,80,-1,-1,82,84,86,88,-1,-1,-1,-1,-1,-1,-1,-1,-1,90,92,94,96,98,100,-1,-1,-1,-1,-1,-1,-1,-1,-1,-1,-1,-1,-1,-1,-1,-1,-1,-1,-1,-1,-1,-1,-1,-1],"split_conditions":[NaN,3.6096E4,4.3678E4,2.7322056E1,1.5341482E1,2.019E3,5.4404E4,1.7812E4,2.4125E4,4.9661E4,3.2E1,1.105E4,NaN,3.1574206E0,3.295E4,9.5E-1,NaN,9.0611E4,NaN,NaN,NaN,1E0,-4.1053023E0,NaN,1E0,NaN,NaN,3.7789297E0,3.2102528E0,6.4619E4,9.8255E4,NaN,9.5E-1,NaN,1E0,NaN,NaN,-4.3479557E0,NaN,-3.7889588E-1,-8.7568367E-1,4.799569E-1,NaN,NaN,-2.4331775E-2,NaN,2.1281903E0,6.087E4,7.2784E4,NaN,-3.9037488E0,NaN,-3.0268307E0,-3.9142385E0,-2.8698945E0,NaN,-1.7232687E0,-2.564784E0,NaN,NaN,NaN,NaN,-1.256302E0,-3.0855646E0,-3.6234853E0,1.5694611E0,1.1607597E0,1.8105884E0,8.66406E-1,2.6804914E0,1.7062465E0,9.5E-1,NaN,9E-1,2.019E3,NaN,9E-1,-2.065227E0,-2.481227E0,-1.0080843E0,-1.4789917E0,-1.5220162E0,-2.016063E0,-4.0931463E-1,-9.068755E-1,-7.7909577E-1,-1.0559283E0,-8.3093095E-1,-1.0899711E0,-2.8921945E0,-1.6721164E0,-2.2831254E-1,-4.7688854E-1,-9.486364E-2,3.3264663E0,7.70952E-1,-2.5516386E0,-1.718474E0,-2.5232787E0,-3.9731524E0,-2.7074506E0],"split_indices":[4,0,0,0,0,13,0,0,0,0,12,0,2,0,0,3,15,0,1,1,1,3,0,1,3,1,15,0,0,0,0,2,3,2,3,2,2,0,1,0,0,0,15,1,0,2,0,0,0,1,0,1,0,0,0,15,0,0,2,15,15,1,0,0,0,0,0,0,0,0,0,3,15,3,13,2,3,0,0,0,0,0,0,0,0,0,0,0,0,0,0,0,0,0,0,0,0,0,0,0,0],"split_type":[1,0,0,0,0,0,0,0,0,0,0,0,1,0,0,0,1,0,1,1,1,0,0,1,0,1,1,0,0,0,0,1,0,1,0,1,1,0,1,0,0,0,1,1,0,1,0,0,0,1,0,1,0,0,0,1,0,0,1,1,1,1,0,0,0,0,0,0,0,0,0,0,1,0,0,1,0,0,0,0,0,0,0,0,0,0,0,0,0,0,0,0,0,0,0,0,0,0,0,0,0],"sum_hessian":[5.255E3,1.34E2,5.121E3,8.8E1,4.6E1,1.508E3,3.613E3,1.321E3,1.87E2,3.72E2,3.241E3,7.09E2,6.12E2,7.1E1,1.16E2,2.01E2,1.71E2,2.81E3,4.31E2,3.58E2,3.51E2,3.93E2,2.19E2,4.1E1,7.5E1,2E1,1.81E2,9E1,8.1E1,2.383E3,4.27E2,2.72E2,1.59E2,2.29E2,1.29E2,2.08E2,1.43E2,6.1E1,3.32E2,5E0,3.6E1,9E0,6.6E1,1.5E1,5E0,9.6E1,8.5E1,5.68E2,1.815E3,3.52E2,7.5E1,2.44E2,2.8E1,1E1,1.49E2,1.35E2,9.4E1,3.1E1,9.8E1,1.18E2,9E1,9E1,5.3E1,1.62E2,1.7E2,2.9E1,3.7E1,6E0,9E0,8.8E1,8E0,3.2E2,2.48E2,3.26E2,1.489E3,2.66E2,8.6E1,1.14E2,1.3E2,6E1,7.5E1,3.7E1,6.1E1,9.3E1,2.5E1,3.1E1,5.9E1,3.1E1,5.9E1,1.5E1,3.05E2,1.03E2,1.45E2,7E0,3.19E2,1.366E3,1.23E2,1.43E2,1.23E2,8E0,7.8E1],"tree_param":{"num_deleted":"0","num_feature":"16","num_nodes":"101","size_leaf_vector":"1"}},{"base_weights":[-9.676571E-3,7.321094E1,-1.8748289E0,2.0660744E1,1.19769125E1,5.1826606E0,-4.6102085E0,9.945903E0,3.5092244E0,-1.79117E0,-7.724197E0,1.2943339E0,1.0204363E1,5.031334E0,1.1777265E-1,-3.7541873E0,3.9739678E0,-8.232308E0,4.133423E0,8.7695724E-1,-7.502644E-2,2.618266E0,2.0433373E0,3.4697998E0,6.692147E0,1.0737479E0,-1.1444093E0,-5.6040325E0,7.2202673E0,-1.4402022E0,1.1901752E1,-5.379252E0,-8.947158E0,4.5459557E-1,1.0197788E0,-2.090624E0,3.6563656E0,1.8060548E0,1.3061093E0,1.3949785E0,7.379669E-1,-2.4685487E-1,-3.3242625E-1,-2.167663E0,-9.125886E0,-2.2123588E-2,7.4372926E0,-6.344197E-1,-1.2601262E0,1.3941848E0,1.2089057E1,-8.197727E0,-5.0081444E0,-7.042849E0,-1.2697424E1,4.6179285E0,2.6685436E0,3.7708852E-1,2.773547E-1,1.9933766E-1,1.2518819E-1,-1.522423E0,-3.2112129E0,-1.0735223E1,-7.9749722E0,1.0084192E0,1.8165419E0,-1.8395442E-1,-1.4780875E0,3.485804E0,2.7813506E0,-2.7366693E0,-1.6590574E0,-1.0045602E0,-1.4099245E0,-7.8636107E0,-5.6414704E0,-2.8588486E0,-3.1608357E0,-4.7354907E-2,1.1425769E0,6.685767E-1,5.306878E-1,-5.80936E-1,-1.6897796E-1,-8.53694E-1,-6.269523E-1,-3.3839147E0,-2.473998E0,-2.8910348E0,-1.8675288E0,6.8432435E-2,-9.93095E-2,-2.7450025E-1,-3.8035113E-1,-2.1294973E0,-1.719864E0,-1.0704037E0,-1.5823339E0],"categories":[0,1,2,3,6,7,8,11,13,15,1,6,8,11,0,0,1,2,3,6,7,9,12,15,16,18,19,20,21,22,23,25,29,0,1,3,7,12,13,14,22,23,2,15,1,6,0,1,2,3,4,5,6,7,8,9,11,12,15,16,18,19,20,21,22,23,24,25,26,29,30,0,2,4,5,8,10,11,12,13,14,16,17,18,20,21,22,24,26,27,28,29,30,0,0,0,0,0,1,11,12,14,15,18,26,30,0,1,2,3,4,5,6,7,8,9,10,11,12,13,14,15,16,17,1,2,3,5,6,8,9,10,11,12,13,14,15,16,17,18,19,20,21,22,24,26,0],"categories_nodes":[0,2,6,14,24,25,26,27,32,36,39,40,43,48,50,52,54,56,67,68,76],"categories_segments":[0,1,10,14,15,16,33,42,44,46,47,71,93,94,95,96,97,98,106,124,146],"categories_sizes":[1,9,4,1,1,17,9,2,2,1,24,22,1,1,1,1,1,8,18,22,1],"default_left":[1,0,1,0,0,0,1,0,0,0,0,0,0,0,1,0,0,0,0,0,0,0,0,0,1,1,1,1,0,0,0,0,1,0,0,0,1,0,0,1,1,0,0,1,0,0,0,0,1,0,1,0,1,0,1,0,1,0,0,0,0,0,0,0,0,0,0,1,1,0,0,0,0,0,0,0,1,0,0,0,0,0,0,0,0,0,0,0,0,0,0,0,0,0,0,0,0,0,0],"id":5,"left_children":[1,3,5,-1,-1,7,9,11,13,15,17,19,21,23,25,27,29,31,33,-1,-1,-1,-1,35,37,39,41,43,45,47,49,51,53,-1,-1,-1,55,-1,-1,57,59,-1,-1,61,63,-1,65,-1,67,-1,69,71,73,75,77,79,81,-1,-1,-1,-1,83,85,87,89,-1,-1,91,93,-1,-1,-1,-1,-1,-1,95,97,-1,-1,-1,-1,-1,-1,-1,-1,-1,-1,-1,-1,-1,-1,-1,-1,-1,-1,-1,-1,-1,-1],"loss_changes":[7.202376E5,3.5587562E4,9.930905E4,0E0,0E0,1.1415203E4,3.2524969E4,8.173047E2,5.4955625E3,2.2049281E4,1.0645453E4,4.7990616E1,3.4798828E2,1.8797656E3,4.006064E2,2.953762E4,2.1267139E4,3.3920547E3,1.142395E1,0E0,0E0,0E0,0E0,8.987036E2,3.30583E2,1.8703918E1,1.7596893E0,1.5032125E4,3.3621484E2,5.989691E1,1.5233789E2,3.1143848E2,9.538352E3,0E0,0E0,0E0,3.425586E2,0E0,0E0,1.3962555E0,1.0983696E0,0E0,0E0,4.185315E2,1.0456172E3,0E0,6.9328125E1,0E0,5.9974182E1,0E0,4.233203E1,7.00813E1,1.8998926E2,9.8308203E2,8.875E0,1.4857153E2,3.0180664E0,0E0,0E0,0E0,0E0,2.8741382E2,3.9500732E1,1.812207E2,1.4416406E2,0E0,0E0,5.0545254E0,5.3267517E0,0E0,0E0,0E0,0E0,0E0,0E0,3.244336E2,3.4782324E2,0E0,0E0,0E0,0E0,0E0,0E0,0E0,0E0,0E0,0E0,0E0,0E0,0E0,0E0,0E0,0E0,0E0,0E0,0E0,0E0,0E0,0E0],"parents":[2147483647,0,0,1,1,2,2,5,5,6,6,7,7,8,8,9,9,10,10,11,11,12,12,13,13,14,14,15,15,16,16,17,17,18,18,23,23,24,24,25,25,26,26,27,27,28,28,29,29,30,30,31,31,32,32,36,36,39,39,40,40,43,43,44,44,46,46,48,48,50,50,51,51,52,52,53,53,54,54,55,55,56,56,61,61,62,62,63,63,64,64,67,67,68,68,75,75,76,76],"right_children":[2,4,6,-1,-1,8,10,12,14,16,18,20,22,24,26,28,30,32,34,-1,-1,-1,-1,36,38,40,42,44,46,48,50,52,54,-1,-1,-1,56,-1,-1,58,60,-1,-1,62,64,-1,66,-1,68,-1,70,72,74,76,78,80,82,-1,-1,-1,-1,84,86,88,90,-1,-1,92,94,-1,-1,-1,-1,-1,-1,96,98,-1,-1,-1,-1,-1,-1,-1,-1,-1,-1,-1,-1,-1,-1,-1,-1,-1,-1,-1,-1,-1,-1],"split_conditions":[NaN,3.6096E4,NaN,2.0660744E1,1.19769125E1,7.2784E4,NaN,1E0,8.9272E4,9E0,2.019E3,6.8211E4,5.4404E4,7.8833E4,NaN,5E1,6.4619E4,1.105E4,1E0,8.7695724E-1,-7.502644E-2,2.618266E0,2.0433373E0,9E-1,NaN,NaN,NaN,NaN,9E-1,3.295E4,9.5E-1,1E0,NaN,4.5459557E-1,1.0197788E0,-2.090624E0,NaN,1.8060548E0,1.3061093E0,NaN,NaN,-2.4685487E-1,-3.3242625E-1,NaN,1.9632E4,-2.2123588E-2,9.5E-1,-6.344197E-1,NaN,1.3941848E0,NaN,9E-1,NaN,9E0,NaN,9.5E-1,NaN,3.7708852E-1,2.773547E-1,1.9933766E-1,1.2518819E-1,1.7812E4,1.7812E4,9.5E-1,1E0,1.0084192E0,1.8165419E0,NaN,NaN,3.485804E0,2.7813506E0,-2.7366693E0,-1.6590574E0,-1.0045602E0,-1.4099245E0,5.7561E4,NaN,-2.8588486E0,-3.1608357E0,-4.7354907E-2,1.1425769E0,6.685767E-1,5.306878E-1,-5.80936E-1,-1.6897796E-1,-8.53694E-1,-6.269523E-1,-3.3839147E0,-2.473998E0,-2.8910348E0,-1.8675288E0,6.8432435E-2,-9.93095E-2,-2.7450025E-1,-3.8035113E-1,-2.1294973E0,-1.719864E0,-1.0704037E0,-1.5823339E0],"split_indices":[4,0,8,0,0,0,8,3,0,10,13,0,0,0,2,12,0,0,3,0,0,0,0,3,2,14,14,8,3,0,3,3,8,0,0,0,2,0,0,14,14,0,0,2,0,0,3,0,2,0,2,3,2,10,2,3,14,0,0,0,0,0,0,3,3,0,0,14,14,0,0,0,0,0,0,0,2,0,0,0,0,0,0,0,0,0,0,0,0,0,0,0,0,0,0,0,0,0,0],"split_type":[1,0,1,0,0,0,1,0,0,0,0,0,0,0,1,0,0,0,0,0,0,0,0,0,1,1,1,1,0,0,0,0,1,0,0,0,1,0,0,1,1,0,0,1,0,0,0,0,1,0,1,0,1,0,1,0,1,0,0,0,0,0,0,0,0,0,0,1,1,0,0,0,0,0,0,0,1,0,0,0,0,0,0,0,0,0,0,0,0,0,0,0,0,0,0,0,0,0,0],"sum_hessian":[5.272E3,1.3E2,5.142E3,8.1E1,4.9E1,1.436E3,3.706E3,3.72E2,1.064E3,1.946E3,1.76E3,1.1E1,3.61E2,7.34E2,3.3E2,1.452E3,4.94E2,1.688E3,7.2E1,4E0,7E0,2.45E2,1.16E2,3.8E2,3.54E2,1.88E2,1.42E2,1.243E3,2.09E2,2.94E2,2E2,3.4E2,1.348E3,5E0,6.7E1,5E0,3.75E2,2.05E2,1.49E2,9.4E1,9.4E1,1.02E2,4E1,6.3E2,6.13E2,6E0,2.03E2,3.6E1,2.58E2,7E0,1.93E2,3.7E1,3.03E2,8.96E2,4.52E2,1.88E2,1.87E2,4.9E1,4.5E1,6.2E1,3.2E1,3.91E2,2.39E2,2.52E2,3.61E2,1.1E1,1.92E2,4.4E1,2.14E2,2.5E1,1.68E2,8E0,2.9E1,1.62E2,1.41E2,5.62E2,3.34E2,1.97E2,2.55E2,6E0,1.82E2,1.41E2,4.6E1,1.84E2,2.07E2,1.45E2,9.4E1,2.2E1,2.3E2,1.1E1,3.5E2,1.4E1,3E1,5.8E1,1.56E2,2.15E2,3.47E2,1.55E2,1.79E2],"tree_param":{"num_deleted":"0","num_feature":"16","num_nodes":"99","size_leaf_vector":"1"}},{"base_weights":[-1.8606516E-2,5.5621063E1,-1.385559E0,6.629947E1,8.961033E0,3.9251618E0,-3.4597456E0,1.7184532E1,1.1412698E1,7.5633783E0,2.628639E0,-1.3019816E0,-5.8186507E0,9.424692E-1,7.8525577E0,3.753894E0,1.2448494E-1,-2.7908282E0,3.1206458E0,-6.176594E0,2.91709E0,7.420276E-1,-1.9181012E-1,8.438036E0,1.5378102E0,2.615601E0,5.0080485E0,7.7675164E-1,-8.026069E-1,-4.138345E0,5.506624E0,-1.0430435E0,9.132236E0,-4.1431546E0,-6.7340713E0,1.19067535E-1,3.131302E0,1.2959739E-2,-1.1893246E-1,9.046763E0,1.8348179E0,-1.674336E0,2.7606921E0,6.447759E0,4.471904E0,1.5406231E0,-3.1361172E-1,-3.5892516E-1,-1.3954315E0,-1.5398781E0,-6.9790583E0,2.397906E0,5.759456E0,-5.064323E-1,-1.5522095E0,2.3943005E0,7.9265437E0,-3.6228328E0,-5.492945E0,-5.3371344E0,-9.634952E0,9.134197E-1,2.7241309E0,1.8263249E0,2.3270152E0,3.7627947E0,1.6939124E0,1.8172626E0,1.1979676E0,5.028297E0,8.798382E-1,8.599197E-1,1.263113E0,8.3912306E-2,-6.0942465E-1,-0E0,-1.4659458E-1,-2.7212965E-1,-4.0638426E-1,-8.192168E-1,-2.3315144E0,-8.255246E0,-6.093189E0,1.1458496E0,1.268017E0,6.225144E0,1.0243651E0,2.989639E-1,-7.368002E-1,-1.0803441E0,-1.9631186E0,1.0384372E0,1.9329914E0,-3.12105E0,-4.2705016E0,-2.139221E0,-1.2174424E0,-3.0733693E0,-5.203152E0,-8.918908E0,-2.5733185E0,7.2305197E-1,1.9907616E0,1.1100522E0,6.7277956E-1,4.8785645E-1,1.3890734E-1,1.350015E0,1.0309558E0,3.847851E-1,2.4218014E-1,6.392915E-2,-3.7835978E-2,-2.606637E-1,-9.193443E-2,1.6053209E-1,-3.2384586E-2,1.5296924E-2,-4.3663442E-1,-4.7779945E-1,-7.643034E-1,-1.893607E0,-2.7578282E0,-1.3091712E0,-1.6627148E0,4.523892E-1,-1.1568065E-2,1.8318257E0,1.3963896E0,1.24868385E-1,-1.056168E-2,-1.1594474E-2,-1.990543E-1,-5.16995E-1,-5.4621674E-2,-3.241198E-1,-5.6383604E-1,-5.863161E-1,-9.6332186E-1,-8.9792234E-1,-1.1086805E0,-1.595786E0,-1.1388131E0,-1.8334674E0,-2.214723E0,3.1081927E-1,5.9301883E-1],"categories":[0,1,2,3,6,7,8,11,13,15,3,4,5,6,1,6,8,11,0,23,0,1,2,3,4,5,6,7,8,9,10,11,12,13,14,15,16,17,19,20,21,23,25,28,30,31,32,33,43,44,50,51,0,1,2,3,4,5,6,7,8,9,10,11,12,13,14,15,16,17,18,19,20,21,22,23,24,26,27,28,29,31,32,33,34,35,36,37,38,40,41,43,51,0,1,2,3,4,5,6,7,8,9,10,11,13,15,16,17,18,20,21,22,23,24,27,40,3,4,5,6,2,15,1,2,4,5,6,7,8,9,10,11,12,13,14,15,17,18,20,21,24,1,2,3,4,5,6,1,3,4,11,16,17,19,21,22,24,29,49,1,6,0,1,2,3,4,5,6,7,8,10,0,1,2,3,4,5,6,7,8,9,10,11,12,13,14,15,17,20,21,22,24,25,29,31,32,33,39,0,0,0,1,2,3,4,5,6,7,8,9,10,11,12,13,14,15,16,17,18,19,20,21,22,23,24,25,26,27,28,29,30,31,32,33,34,35,36,37,38,39,40,41,42,44,45,46,48,50,51,0,1,2,3,4,5,6,7,8,9,16,40,7,8,9,3,4,0,1,2,3,4,5,6,7,8,9,10,11,12,15,16,18,19,20,21,22,24,25,26,27,29,30,31,32,38,0,1,2,3,4,5,6,7,8,9,10,11,12,13,14,15,16,17,18,19,20,21,22,23,24,25,26,27,28,29,30,31,32,33,34,35,36,37,38,39,40,41,42,44,45,46,47,48,49,50,51,0,1,2,0,1,2,3,4,5,6,7,8,9,10,11,12,13,14,15,16,17,18,19,20,21,22,23,24,25,26,27,28,29,30,31,32,33,34,35,36,37,39,40,41,43,44,46,0,0,0,5,6,7,8,9,10,11,12,13,14,17,18,20,21,23,24,25,27,30,31,0,1,2,3,4,5,6,7,8,9,10,11,12,13,14,15,16,17,18,19,20,21,22,23,24,25,26,27,28,29,30,33,34,35,37,38,39,40,41,42,43,45,48,49,50,51,0,0,3,4,6,7,8,11,16,18,19,23,26,27,28,30,34,35,36,37,38,40,41,42,43,44,45,46,47,48,49,50,51,0,1,2,3,10,11,0,1,2,3,4,5,6,7,8,9,10,11,12,13,15,16,17,18,19,20,21,22,23,24,27,28,29,30,32,33,34,35,38,40,41,42,43,44,45,46,47,48,49,51,0,1,2,3,6,1,2,4,8,9,16,40,0,1,2,3,4,5,6,7,8,9,10,11,12,13,14,15,16,17,18,19,20,21,22,23,24,25,26,27,28,29,30,31,32,33,34,35,36,37,38,39,40,41,42,43,44,45,46,47,48,49,50,0,0,19,24,25,33,0,1,2,4,6,7,10,12,14,15,20,21,22,24,25,28,30,31,34,42,49,51,16,0,1,2,3,4,5,6,7,8,9,10,11,12,13,14,15,16,17,18,19,20,21,22,23,24,25,26,27,28,29,30,31,32,33,34,35,36,37,38,40,41,42,43,44,45,46,50,51,0,1,2,3,4,5,6,7,8,9,10,11,12,13,14,15,16,17,18,19,20,21,22,23,24,25,26,27,28,29,30,31,32,33,34,35,36,37,39,40,41,42,43,44,45,46,49,50,0,0,1,2,0,1,2,3,6,4,5,6,7,8,1,3,4,15,16,19,22,26,28,29,32,33,34,35,36,37,38,39,40,41,42,43,44,0,1,2,3,4,5,6,7,8,9,10,11,12,13,14,15,16,17,18,19,20,21,22,23,24,25,26,27,28,29,30,31,32,33,34,35],"categories_nodes":[0,2,3,6,16,22,23,26,27,28,29,31,32,33,34,36,42,43,44,45,46,47,48,49,51,52,53,54,57,60,62,65,66,69,72,73,74,75,79,80,81,82,84,85,87,88,90,93,94,99,102],"categories_segments":[0,1,10,14,18,19,20,52,93,117,121,123,142,148,160,162,172,199,200,201,250,262,265,267,296,347,350,394,395,396,417,463,464,496,502,546,551,558,609,610,611,615,637,638,686,734,735,738,743,748,771],"categories_sizes":[1,9,4,4,1,1,32,41,24,4,2,19,6,12,2,10,27,1,1,49,12,3,2,29,51,3,44,1,1,21,46,1,32,6,44,5,7,51,1,1,4,22,1,48,48,1,3,5,5,23,36],"default_left":[1,0,1,1,0,0,1,0,0,0,0,0,0,0,0,0,1,0,0,0,0,0,1,1,0,0,1,1,1,1,0,1,1,1,1,0,1,0,0,0,0,0,1,1,1,1,1,1,1,1,0,1,1,1,1,0,0,1,0,0,1,0,1,0,0,1,1,0,0,1,0,0,1,1,1,1,0,0,0,1,1,1,1,0,1,1,0,1,1,0,1,0,0,1,1,0,0,0,0,1,0,0,1,0,0,0,0,0,0,0,0,0,0,0,0,0,0,0,0,0,0,0,0,0,0,0,0,0,0,0,0,0,0,0,0,0,0,0,0,0,0,0,0,0,0,0,0],"id":6,"left_children":[1,3,5,7,-1,9,11,-1,-1,13,15,17,19,21,23,25,27,29,31,33,35,-1,37,39,-1,41,43,45,47,49,51,53,55,57,59,-1,61,-1,-1,63,-1,-1,65,67,69,71,73,75,77,79,81,83,85,87,89,-1,91,93,95,97,99,-1,101,-1,-1,103,105,-1,-1,107,-1,-1,109,111,113,115,-1,-1,-1,117,119,121,123,-1,125,127,-1,129,131,133,135,-1,-1,137,139,-1,-1,-1,141,143,-1,-1,145,-1,-1,-1,-1,-1,-1,-1,-1,-1,-1,-1,-1,-1,-1,-1,-1,-1,-1,-1,-1,-1,-1,-1,-1,-1,-1,-1,-1,-1,-1,-1,-1,-1,-1,-1,-1,-1,-1,-1,-1,-1,-1,-1,-1],"loss_changes":[3.996635E5,2.1886344E4,5.651166E4,4.5886562E3,0E0,6.774199E3,1.8767105E4,0E0,0E0,7.1363086E2,2.9965146E3,1.2703805E4,5.5286875E3,4.3161438E1,2.4216406E2,1.0323887E3,2.007798E2,1.6156621E4,1.2176893E4,1.8878633E3,3.3606323E1,0E0,1.0644119E0,4.292578E1,0E0,5.581843E2,2.3635156E2,1.6327676E2,3.4998795E1,9.154469E3,1.4242432E2,7.727396E1,1.26333984E2,2.3500293E2,5.321297E3,0E0,5.5130005E0,0E0,0E0,5.0429688E1,0E0,0E0,4.0031152E2,1.10364746E2,9.205078E1,5.957083E1,9.736748E0,7.3616714E0,1.7342606E0,3.679519E2,6.155469E2,3.8056747E1,9.7813965E1,2.6701447E1,2.5447662E1,0E0,1.1286621E1,7.146753E1,8.858887E1,8.317246E2,2.4476172E2,0E0,2.1072083E0,0E0,0E0,1.482644E2,7.011615E1,0E0,0E0,3.8051514E1,0E0,0E0,6.4885254E0,1.6307282E0,4.213093E0,3.238437E0,0E0,0E0,0E0,3.047963E2,8.1074585E1,1.6650293E2,1.4626074E2,0E0,1.1334854E1,2.783496E1,0E0,2.6205363E0,7.003353E0,6.421731E1,1.4140533E1,0E0,0E0,8.223657E1,1.4768066E0,0E0,0E0,0E0,5.3713086E2,3.918164E1,0E0,0E0,1.0236816E0,0E0,0E0,0E0,0E0,0E0,0E0,0E0,0E0,0E0,0E0,0E0,0E0,0E0,0E0,0E0,0E0,0E0,0E0,0E0,0E0,0E0,0E0,0E0,0E0,0E0,0E0,0E0,0E0,0E0,0E0,0E0,0E0,0E0,0E0,0E0,0E0,0E0,0E0,0E0,0E0,0E0,0E0,0E0,0E0],"parents":[2147483647,0,0,1,1,2,2,3,3,5,5,6,6,9,9,10,10,11,11,12,12,13,13,14,14,15,15,16,16,17,17,18,18,19,19,20,20,22,22,23,23,25,25,26,26,27,27,28,28,29,29,30,30,31,31,32,32,33,33,34,34,36,36,39,39,42,42,43,43,44,44,45,45,46,46,47,47,48,48,49,49,50,50,51,51,52,52,53,53,54,54,56,56,57,57,58,58,59,59,60,60,62,62,65,65,66,66,69,69,72,72,73,73,74,74,75,75,79,79,80,80,81,81,82,82,84,84,85,85,87,87,88,88,89,89,90,90,93,93,94,94,98,98,99,99,102,102],"right_children":[2,4,6,8,-1,10,12,-1,-1,14,16,18,20,22,24,26,28,30,32,34,36,-1,38,40,-1,42,44,46,48,50,52,54,56,58,60,-1,62,-1,-1,64,-1,-1,66,68,70,72,74,76,78,80,82,84,86,88,90,-1,92,94,96,98,100,-1,102,-1,-1,104,106,-1,-1,108,-1,-1,110,112,114,116,-1,-1,-1,118,120,122,124,-1,126,128,-1,130,132,134,136,-1,-1,138,140,-1,-1,-1,142,144,-1,-1,146,-1,-1,-1,-1,-1,-1,-1,-1,-1,-1,-1,-1,-1,-1,-1,-1,-1,-1,-1,-1,-1,-1,-1,-1,-1,-1,-1,-1,-1,-1,-1,-1,-1,-1,-1,-1,-1,-1,-1,-1,-1,-1,-1,-1],"split_conditions":[NaN,3.6096E4,NaN,NaN,8.961033E0,7.2784E4,NaN,1.7184532E1,1.1412698E1,1E0,8.9272E4,9E0,2.019E3,6.8211E4,5.4404E4,7.8833E4,NaN,5E1,6.4619E4,1.105E4,9.5E-1,7.420276E-1,NaN,NaN,1.5378102E0,9E-1,NaN,NaN,NaN,NaN,9.5E-1,NaN,NaN,NaN,NaN,1.19067535E-1,NaN,1.2959739E-2,-1.1893246E-1,2.4125E4,1.8348179E0,-1.674336E0,NaN,NaN,NaN,NaN,NaN,NaN,NaN,NaN,1.9632E4,NaN,NaN,NaN,NaN,2.3943005E0,9.5E-1,NaN,9E-1,9E-1,NaN,9.134197E-1,NaN,1.8263249E0,2.3270152E0,NaN,NaN,1.8172626E0,1.1979676E0,NaN,8.798382E-1,8.599197E-1,NaN,NaN,NaN,NaN,-1.4659458E-1,-2.7212965E-1,-4.0638426E-1,NaN,NaN,NaN,NaN,1.1458496E0,NaN,NaN,1.0243651E0,NaN,NaN,3.295E4,NaN,1.0384372E0,1.9329914E0,NaN,NaN,-2.139221E0,-1.2174424E0,-3.0733693E0,5.7561E4,NaN,-2.5733185E0,7.2305197E-1,NaN,1.1100522E0,6.7277956E-1,4.8785645E-1,1.3890734E-1,1.350015E0,1.0309558E0,3.847851E-1,2.4218014E-1,6.392915E-2,-3.7835978E-2,-2.606637E-1,-9.193443E-2,1.6053209E-1,-3.2384586E-2,1.5296924E-2,-4.3663442E-1,-4.7779945E-1,-7.643034E-1,-1.893607E0,-2.7578282E0,-1.3091712E0,-1.6627148E0,4.523892E-1,-1.1568065E-2,1.8318257E0,1.3963896E0,1.24868385E-1,-1.056168E-2,-1.1594474E-2,-1.990543E-1,-5.16995E-1,-5.4621674E-2,-3.241198E-1,-5.6383604E-1,-5.863161E-1,-9.6332186E-1,-8.9792234E-1,-1.1086805E0,-1.595786E0,-1.1388131E0,-1.8334674E0,-2.214723E0,3.1081927E-1,5.9301883E-1],"split_indices":[4,0,8,15,0,0,8,0,0,3,0,10,13,0,0,0,2,12,0,0,3,0,1,1,0,3,1,1,15,8,3,1,15,1,8,0,15,0,0,0,0,0,1,2,2,1,1,15,15,1,0,1,15,1,2,0,3,2,3,3,1,0,1,0,0,2,1,0,0,15,0,0,1,15,1,1,0,0,0,2,2,1,1,0,1,1,0,1,2,0,15,0,0,15,15,0,0,0,0,1,0,0,1,0,0,0,0,0,0,0,0,0,0,0,0,0,0,0,0,0,0,0,0,0,0,0,0,0,0,0,0,0,0,0,0,0,0,0,0,0,0,0,0,0,0,0,0],"split_type":[1,0,1,1,0,0,1,0,0,0,0,0,0,0,0,0,1,0,0,0,0,0,1,1,0,0,1,1,1,1,0,1,1,1,1,0,1,0,0,0,0,0,1,1,1,1,1,1,1,1,0,1,1,1,1,0,0,1,0,0,1,0,1,0,0,1,1,0,0,1,0,0,1,1,1,1,0,0,0,1,1,1,1,0,1,1,0,1,1,0,1,0,0,1,1,0,0,0,0,1,0,0,1,0,0,0,0,0,0,0,0,0,0,0,0,0,0,0,0,0,0,0,0,0,0,0,0,0,0,0,0,0,0,0,0,0,0,0,0,0,0,0,0,0,0,0,0],"sum_hessian":[5.253E3,1.25E2,5.128E3,7.7E1,4.8E1,1.44E3,3.688E3,5.7E1,2E1,3.77E2,1.063E3,1.927E3,1.761E3,1.6E1,3.61E2,7.33E2,3.3E2,1.442E3,4.85E2,1.692E3,6.9E1,5E0,1.1E1,2.52E2,1.09E2,3.86E2,3.47E2,1.94E2,1.36E2,1.241E3,2.01E2,2.87E2,1.98E2,3.66E2,1.326E3,6E0,6.3E1,6E0,5E0,1.34E2,1.18E2,5E0,3.81E2,9.1E1,2.56E2,1.14E2,8E1,7.9E1,5.7E1,6.49E2,5.92E2,1.6E1,1.85E2,1.41E2,1.46E2,1.1E2,8.8E1,2.67E2,9.9E1,8.97E2,4.29E2,2E1,4.3E1,4.8E1,8.6E1,1.95E2,1.86E2,4.8E1,4.3E1,1.47E2,1.09E2,1.2E1,1.02E2,3.4E1,4.6E1,3.3E1,4.6E1,3.4E1,2.3E1,3.41E2,3.08E2,2.39E2,3.53E2,4E0,1.2E1,1.38E2,4.7E1,3.1E1,1.1E2,7E1,7.6E1,5E0,8.3E1,1.54E2,1.13E2,8E0,9.1E1,1.4E1,8.83E2,2.68E2,1.61E2,2.8E1,1.5E1,9.9E1,9.6E1,1.41E2,4.5E1,7.5E1,7.2E1,4E1,6.2E1,2E1,1.4E1,1.3E1,3.3E1,5E0,2.8E1,1.82E2,1.59E2,2.25E2,8.3E1,2.2E2,1.9E1,2.1E2,1.43E2,8E0,4E0,2.5E1,1.13E2,1.9E1,1.2E1,1.4E1,9.6E1,3E1,4E1,3.2E1,4.4E1,9.1E1,6.3E1,5.2E1,6.1E1,2E2,6.83E2,6.3E1,2.05E2,8E0,7E0],"tree_param":{"num_deleted":"0","num_feature":"16","num_nodes":"147","size_leaf_vector":"1"}},{"base_weights":[-7.463158E-2,4.299588E1,-1.0884281E0,5.101557E1,6.9995494E0,2.9533293E0,-2.6543174E0,1.3430027E1,9.355238E0,3.865275E0,4.6300642E-2,-1.0481161E0,-4.4371924E0,6.3325105E0,3.1370642E0,5.8017653E-1,-6.796082E-1,-2.194693E0,2.374403E0,-4.7081203E0,2.250506E0,6.6595364E0,1.3385553E0,4.0230336E0,2.0443745E0,1.411905E0,6.581196E-3,-3.3367574E-1,-1.089209E0,-3.218519E0,4.2059116E0,-7.8836143E-1,6.9272223E0,-3.184895E0,-5.095387E0,9.0021E-2,2.3862436E0,1.3965949E0,1.6919802E0,-3.55666E-2,4.124886E0,-1.2842227E0,2.1381614E0,4.2008388E-1,8.474775E-1,3.874166E-1,-4.6922788E-1,2.4488776E-3,-1.2708643E-1,-1.7720684E-1,-2.937003E-1,-1.2165776E0,-5.359293E0,-1.2778431E-2,4.315832E0,-2.616636E-1,-1.1165739E0,7.546323E0,1.370972E0,-1.3978994E0,-2.9933367E0,-4.0638785E0,-7.3464293E0,6.2580246E-1,4.332576E-1,4.5511713E0,3.207728E0,3.0328336E0,1.558209E0,2.1997431E-1,4.693822E-2,5.600399E-1,1.9440524E-1,-4.163727E-2,-6.0728234E-1,-6.025168E-1,-1.8645672E0,-8.596625E0,-5.085155E0,4.735256E0,3.406751E0,6.316641E-2,-1.0153187E-1,-7.348886E-1,-1.4106128E0,7.639828E-1,1.857165E0,-2.5418525E0,-3.5662975E0,-4.669004E0,-3.106334E0,-6.6574097E0,-1.9763985E0,1.1677464E0,7.655112E-1,9.201092E-1,6.28023E-1,1.1908437E-1,7.451487E-1,5.2220094E-1,2.0256306E-1,1.9934827E-1,5.2433204E-2,6.790401E-2,-2.2526836E-2,-1.9929035E-1,-3.2718614E-2,6.6122055E-2,-3.51355E-1,-5.474291E-1,-3.0424315E-1,-1.7895204E0,-2.6530826E0,-1.1341225E0,-1.7024595E0,1.1674823E0,6.313337E-1,3.0869743E-1,8.4975696E-1,9.427425E-2,-3.4775215E-3,-3.6073908E-1,-4.331517E-2,-2.686859E-1,-5.2660066E-1,-4.761357E-1,-7.1654594E-1,-7.3796695E-1,-1.049201E0,-9.897871E-1,-1.367904E0,-1.4701165E0,-6.7930084E-1,-1.3835273E0,-1.7175957E0],"categories":[0,1,2,3,6,7,8,11,13,15,2,3,4,5,6,1,6,8,11,0,0,1,2,3,7,0,1,2,3,4,5,6,7,8,11,13,14,15,0,1,2,3,4,5,6,3,4,5,6,0,1,2,3,4,5,6,7,8,0,1,2,7,8,9,3,4,5,2,15,0,1,2,3,4,5,2,3,4,5,1,6,0,1,2,3,4,5,6,7,8,0,0,1,2,3,4,5,6,7,0,1,2,3,0,1,2,3,4,7,8,9,10,11,0,1,0,1,2,3,4,5,6,0,1,2,7,6,7,8,9,0,0,1,2,3,4,5,0,1,2,3,4,5,0,1,2,3,0,1,2,3,4,5,6,7,0,0,1,2,3,4,5,6,7,8,9,10,11,12,13,0,1,2,3,4,5,6,7,0,1,2,3,4,5,6,7,8,9,0,1,7,0,0,0,1,2,3,4,5,6,7,8,9,10,11,12,13,14,15,16,17,18,19,20,21,22,23,24,0,1,0,0,0,0],"categories_nodes":[0,2,3,6,10,13,14,15,16,25,26,27,28,29,31,32,34,36,40,42,44,45,46,51,54,55,56,60,62,65,66,68,71,72,74,75,77,78,79,81,84,87,88,89,91],"categories_segments":[0,1,10,15,19,20,25,38,45,49,58,61,64,67,69,75,79,81,90,91,99,103,113,115,122,126,130,131,137,143,147,155,156,170,178,188,189,191,192,193,218,220,221,222,223],"categories_sizes":[1,9,5,4,1,5,13,7,4,9,3,3,3,2,6,4,2,9,1,8,4,10,2,7,4,4,1,6,6,4,8,1,14,8,10,1,2,1,1,25,2,1,1,1,1],"default_left":[1,0,1,1,0,0,1,0,0,0,1,0,0,1,1,1,1,0,0,0,0,0,0,0,0,1,1,1,1,1,0,1,1,0,1,0,1,0,0,0,1,0,1,0,1,1,1,0,0,0,0,1,0,0,1,1,1,0,0,0,1,0,1,0,0,1,1,0,1,0,0,1,1,0,1,1,0,1,1,1,0,1,0,0,1,0,0,1,1,1,0,1,0,0,0,0,0,0,0,0,0,0,0,0,0,0,0,0,0,0,0,0,0,0,0,0,0,0,0,0,0,0,0,0,0,0,0,0,0,0,0,0,0,0,0],"id":7,"left_children":[1,3,5,7,-1,9,11,-1,-1,13,15,17,19,21,23,25,27,29,31,33,35,37,-1,39,41,43,45,47,49,51,53,55,57,59,61,-1,63,-1,-1,-1,65,-1,67,-1,69,71,73,-1,-1,-1,-1,75,77,-1,79,81,83,85,-1,-1,87,89,91,-1,-1,93,95,97,99,-1,-1,101,103,-1,105,107,109,111,113,115,117,119,-1,121,123,-1,-1,125,127,129,131,133,-1,-1,-1,-1,-1,-1,-1,-1,-1,-1,-1,-1,-1,-1,-1,-1,-1,-1,-1,-1,-1,-1,-1,-1,-1,-1,-1,-1,-1,-1,-1,-1,-1,-1,-1,-1,-1,-1,-1,-1,-1,-1,-1],"loss_changes":[2.2975461E5,1.1792031E4,3.2544912E4,2.3594219E3,0E0,3.8055498E3,1.0606379E4,0E0,0E0,1.9409395E3,1.3368271E2,7.6612705E3,3.1930586E3,1.8394531E1,8.089043E2,9.449893E1,1.9890015E1,9.593956E3,7.0631606E3,9.769297E2,1.581012E1,1.1209961E1,0E0,1.9983398E2,2.755199E2,1.3486435E1,2.172172E1,5.6755285E0,1.6830978E0,5.395744E3,9.610498E1,4.941989E1,1.0103027E2,1.5563525E2,3.087293E3,0E0,2.3821716E0,0E0,0E0,0E0,1.6087549E2,0E0,1.8947339E2,0E0,1.0374298E0,1.8935556E0,1.8153219E0,0E0,0E0,0E0,0E0,2.5795477E2,4.9242383E2,0E0,5.644214E1,6.119123E0,1.8283768E1,9.571924E1,0E0,0E0,7.285449E1,5.1847266E2,2.0691602E2,0E0,0E0,1.20125E2,4.2967407E1,2.848816E1,1.00005554E2,0E0,0E0,2.6671934E0,9.6385217E-1,0E0,3.3152218E0,2.576008E2,7.5755615E1,3.88667E1,3.5494238E2,2.5549316E1,1.4470459E1,1.0992016E0,0E0,3.349231E1,1.8992432E1,0E0,0E0,3.8825684E1,3.9341797E1,2.8734277E2,2.710918E2,6.705371E1,0E0,0E0,0E0,0E0,0E0,0E0,0E0,0E0,0E0,0E0,0E0,0E0,0E0,0E0,0E0,0E0,0E0,0E0,0E0,0E0,0E0,0E0,0E0,0E0,0E0,0E0,0E0,0E0,0E0,0E0,0E0,0E0,0E0,0E0,0E0,0E0,0E0,0E0,0E0,0E0,0E0,0E0,0E0],"parents":[2147483647,0,0,1,1,2,2,3,3,5,5,6,6,9,9,10,10,11,11,12,12,13,13,14,14,15,15,16,16,17,17,18,18,19,19,20,20,21,21,23,23,24,24,25,25,26,26,27,27,28,28,29,29,30,30,31,31,32,32,33,33,34,34,36,36,40,40,42,42,44,44,45,45,46,46,51,51,52,52,54,54,55,55,56,56,57,57,60,60,61,61,62,62,65,65,66,66,67,67,68,68,71,71,72,72,74,74,75,75,76,76,77,77,78,78,79,79,80,80,81,81,83,83,84,84,87,87,88,88,89,89,90,90,91,91],"right_children":[2,4,6,8,-1,10,12,-1,-1,14,16,18,20,22,24,26,28,30,32,34,36,38,-1,40,42,44,46,48,50,52,54,56,58,60,62,-1,64,-1,-1,-1,66,-1,68,-1,70,72,74,-1,-1,-1,-1,76,78,-1,80,82,84,86,-1,-1,88,90,92,-1,-1,94,96,98,100,-1,-1,102,104,-1,106,108,110,112,114,116,118,120,-1,122,124,-1,-1,126,128,130,132,134,-1,-1,-1,-1,-1,-1,-1,-1,-1,-1,-1,-1,-1,-1,-1,-1,-1,-1,-1,-1,-1,-1,-1,-1,-1,-1,-1,-1,-1,-1,-1,-1,-1,-1,-1,-1,-1,-1,-1,-1,-1,-1,-1],"split_conditions":[NaN,3.6096E4,NaN,NaN,6.9995494E0,8.9272E4,NaN,1.3430027E1,9.355238E0,5.4404E4,NaN,9E0,2.019E3,NaN,NaN,NaN,NaN,5E1,6.4619E4,1.105E4,9.5E-1,2.4125E4,1.3385553E0,9E-1,9E-1,NaN,NaN,NaN,NaN,NaN,9E-1,NaN,NaN,9.5E-1,NaN,9.0021E-2,NaN,1.3965949E0,1.6919802E0,-3.55666E-2,NaN,-1.2842227E0,NaN,4.2008388E-1,NaN,NaN,NaN,2.4488776E-3,-1.2708643E-1,-1.7720684E-1,-2.937003E-1,NaN,1E0,-1.2778431E-2,NaN,NaN,NaN,9.5E-1,1.370972E0,-1.3978994E0,NaN,9E0,NaN,6.2580246E-1,4.332576E-1,NaN,NaN,9.5E-1,NaN,2.1997431E-1,4.693822E-2,NaN,NaN,-4.163727E-2,NaN,NaN,1.7812E4,NaN,NaN,NaN,9.5E-1,NaN,-1.0153187E-1,3.295E4,NaN,7.639828E-1,1.857165E0,NaN,NaN,NaN,1E0,NaN,-1.9763985E0,1.1677464E0,7.655112E-1,9.201092E-1,6.28023E-1,1.1908437E-1,7.451487E-1,5.2220094E-1,2.0256306E-1,1.9934827E-1,5.2433204E-2,6.790401E-2,-2.2526836E-2,-1.9929035E-1,-3.2718614E-2,6.6122055E-2,-3.51355E-1,-5.474291E-1,-3.0424315E-1,-1.7895204E0,-2.6530826E0,-1.1341225E0,-1.7024595E0,1.1674823E0,6.313337E-1,3.0869743E-1,8.4975696E-1,9.427425E-2,-3.4775215E-3,-3.6073908E-1,-4.331517E-2,-2.686859E-1,-5.2660066E-1,-4.761357E-1,-7.1654594E-1,-7.3796695E-1,-1.049201E0,-9.897871E-1,-1.367904E0,-1.4701165E0,-6.7930084E-1,-1.3835273E0,-1.7175957E0],"split_indices":[4,0,8,15,0,0,8,0,0,0,2,10,13,15,8,15,15,12,0,0,3,0,0,3,3,15,15,15,15,8,3,15,15,3,8,0,15,0,0,0,2,0,15,0,14,15,15,0,0,0,0,15,3,0,15,15,2,3,0,0,15,10,15,0,0,15,15,3,2,0,0,14,14,0,14,2,0,15,2,2,3,14,0,0,15,0,0,2,2,2,3,2,0,0,0,0,0,0,0,0,0,0,0,0,0,0,0,0,0,0,0,0,0,0,0,0,0,0,0,0,0,0,0,0,0,0,0,0,0,0,0,0,0,0,0],"split_type":[1,0,1,1,0,0,1,0,0,0,1,0,0,1,1,1,1,0,0,0,0,0,0,0,0,1,1,1,1,1,0,1,1,0,1,0,1,0,0,0,1,0,1,0,1,1,1,0,0,0,0,1,0,0,1,1,1,0,0,0,1,0,1,0,0,1,1,0,1,0,0,1,1,0,1,1,0,1,1,1,0,1,0,0,1,0,0,1,1,1,0,1,0,0,0,0,0,0,0,0,0,0,0,0,0,0,0,0,0,0,0,0,0,0,0,0,0,0,0,0,0,0,0,0,0,0,0,0,0,0,0,0,0,0,0],"sum_hessian":[5.26E3,1.2E2,5.14E3,7.4E1,4.6E1,1.435E3,3.705E3,4.9E1,2.5E1,1.092E3,3.43E2,1.95E3,1.755E3,2.47E2,8.45E2,1.98E2,1.45E2,1.461E3,4.89E2,1.687E3,6.8E1,1.65E2,8.2E1,4.65E2,3.8E2,8E1,1.18E2,8E1,6.5E1,1.26E3,2.01E2,2.89E2,2E2,3.44E2,1.343E3,5E0,6.3E1,6.1E1,1.04E2,1.1E1,4.54E2,4E0,3.76E2,4.8E1,3.2E1,6.6E1,5.2E1,2.9E1,5.1E1,2.1E1,4.4E1,6.52E2,6.08E2,5E0,1.96E2,1.12E2,1.77E2,1.28E2,7.2E1,2.1E1,3.23E2,9.23E2,4.2E2,4.2E1,2.1E1,3.07E2,1.47E2,1.46E2,2.3E2,2.8E1,4E0,3.3E1,3.3E1,1.8E1,3.4E1,3.36E2,3.16E2,4.5E1,5.63E2,1.31E2,6.5E1,3.7E1,7.5E1,7.9E1,9.8E1,7E0,1.21E2,1.84E2,1.39E2,5.63E2,3.6E2,2.45E2,1.75E2,2.44E2,6.3E1,6.7E1,8E1,5E0,1.41E2,1.21E2,1.09E2,1.7E1,1.6E1,2.6E1,7E0,2.2E1,1.2E1,1.67E2,1.69E2,1.82E2,1.34E2,3.4E1,1.1E1,4.85E2,7.8E1,1.21E2,1E1,5E0,6E1,7E0,3E1,3.2E1,4.7E1,7.4E1,2.4E1,8.6E1,9.8E1,9.1E1,4.8E1,3.78E2,1.85E2,2.7E1,3.33E2,9.7E1,1.48E2],"tree_param":{"num_deleted":"0","num_feature":"16","num_nodes":"135","size_leaf_vector":"1"}},{"base_weights":[-5.9838234E-3,3.252998E1,-8.4848076E-1,3.94486E1,5.198524E0,2.245469E0,-2.0627842E0,1.0383243E1,6.4055214E0,1.4938982E0,4.388902E0,-7.9742324E-1,-3.4077077E0,2.1946752E0,-0E0,2.9516298E-1,4.531884E0,-1.6553192E0,1.7843993E0,-3.6250882E0,1.900738E0,2.9522955E0,1.545778E0,4.0356073E-1,-5.5799323E-1,1.9589446E-1,-3.8849372E-2,4.802939E0,3.4920611E0,-2.3902948E0,3.2593906E0,-6.068444E-1,5.3084326E0,-3.071548E0,-4.332339E0,6.555534E-1,1.296155E0,4.158344E0,2.5715494E0,2.0794373E0,4.3611422E-1,9.9610823E-1,-2.7736732E-1,-3.1182706E-1,-9.146682E-1,5.3810396E0,9.977383E-1,1.0435705E0,2.3516111E0,-9.0823036E-1,-4.0443754E0,3.3721735E0,5.928143E-2,-2.1771067E-1,-9.148756E-1,5.9244213E0,1.0951183E0,-2.2530158E0,-3.878227E0,-6.5087156E0,-4.0745354E0,9.504582E-1,4.357275E-1,1.1694564E0,7.972505E-1,2.904443E0,2.074751E0,2.713341E0,1.4184245E0,-1.6918478E0,6.6559356E-1,5.13597E-1,8.0045927E-1,7.573737E-2,-8.1092075E-2,2.4230988E-1,-5.0194424E-1,-7.912506E-3,-2.3672241E-1,5.837807E0,1.1302658E0,4.159905E-1,6.50369E-1,-2.2318035E-1,-1.3124366E0,-7.2785783E0,-3.8166895E0,1.4908319E0,3.2372813E0,9.350488E-2,-3.2919434E-1,-7.5096655E-1,-2.9527596E-1,6.293605E-1,1.4760499E0,-2.60255E0,-1.833715E-1,-3.5742066E0,-1.3262972E0,-4.884503E0,-2.1173427E0,-3.4325657E0,-5.012257E0,3.2725212E-1,1.2095769E-1,7.752271E-1,5.738924E-1,5.44411E-1,3.4818852E-1,9.28824E-1,5.6761086E-1,6.488707E-1,2.853139E-1,8.86363E-2,-6.4157957E-1,2.929657E-1,5.1424317E-2,2.617709E-1,1.1238462E-1,1.024205E-1,2.5466913E-3,-8.8323E-2,-1.9730893E-1,1.5923951E0,1.2503155E0,1.0087863E-1,-2.1796134E-1,-2.0110539E-1,-3.9672118E-1,-1.3856715E0,-2.3096035E0,-7.5993264E-1,-1.0606335E0,4.771712E-1,7.8860664E-1,1.3400199E-1,-9.517995E-2,-8.418756E-2,-2.4415573E-1,-1.0691462E0,-4.6146137E-1,1.8454403E-1,-3.066618E-1,-6.3529897E-1,-9.9943584E-1,-9.6492505E-1,-1.433526E0,-9.203417E-1,-3.6258924E-1,-1.083993E0,-1.4077011E0],"categories":[0,0,1,2,3,5,6,7,8,9,10,11,12,13,14,15,1,2,3,6,7,8,11,13,15,2,4,5,6,1,6,8,11,0,1,2,3,4,6,7,8,10,11,12,13,14,0,0,2,3,4,6,7,8,10,12,15,16,17,18,19,21,22,24,27,30,34,38,40,45,0,1,2,3,4,5,6,1,2,3,4,5,6,7,8,9,11,12,13,15,0,0,1,2,3,4,5,6,7,8,9,10,11,12,13,14,15,17,18,20,21,31,34,36,46,0,1,2,3,4,5,6,7,8,9,10,11,12,13,14,15,16,17,18,19,20,21,22,23,24,25,26,27,28,29,30,31,32,33,34,35,36,37,38,39,40,43,45,47,50,51,0,1,2,3,4,5,6,7,8,9,10,11,12,13,14,15,16,17,18,19,20,21,22,23,24,25,26,27,28,29,30,31,32,33,36,37,38,39,40,41,43,0,2,3,4,5,6,7,8,9,10,11,12,13,17,24,31,39,0,0,0,1,2,3,4,5,6,8,10,12,13,14,15,16,17,19,20,21,22,23,25,26,30,31,33,34,42,43,44,50,51,0,1,2,3,4,5,6,7,8,9,10,11,12,13,14,15,16,17,18,19,20,21,22,23,24,25,26,27,28,29,30,31,32,34,35,37,40,41,42,43,45,47,51,2,15,0,16,0,1,2,3,4,5,8,9,10,11,12,13,14,15,16,17,18,19,22,24,26,35,2,3,4,5,6,7,0,0,1,2,3,4,5,6,7,8,9,10,11,12,13,14,15,16,17,18,19,20,21,22,23,24,25,26,27,28,29,30,31,33,34,35,39,40,41,42,43,44,46,48,49,50,0,0,0,0,1,2,3,4,5,6,7,8,9,10,11,12,13,14,15,16,17,18,19,20,21,22,23,24,25,26,27,28,29,30,31,32,33,34,35,36,37,38,39,40,42,44,45,46,48,49,50,51,0,1,2,3,4,5,6,7,8,9,10,11,12,13,14,15,16,17,18,19,20,21,22,23,24,25,26,27,28,29,30,31,32,33,34,35,36,37,38,39,40,41,42,43,44,45,46,47,48,49,0,1,2,3,5,6,9,10,0,1,2,3,4,5,6,7,8,9,10,11,12,13,14,15,16,17,18,19,20,21,22,23,24,25,26,27,28,29,30,34,38,1,2,3,4,5,6,7,8,9,10,11,12,13,14,15,0,1,2,3,4,5,6,7,8,9,10,11,12,13,14,15,16,17,18,19,20,21,22,23,24,25,26,27,28,29,31,32,33,34,35,36,37,38,39,40,42,43,0,1,2,3,4,5,6,7,8,9,10,11,12,13,14,16,17,18,19,20,21,22,23,24,25,26,27,29,30,31,32,33,34,36,37,38,0,1,2,3,4,5,6,7,8,9,10,11,12,13,14,15,16,17,18,19,20,21,22,23,24,25,26,27,28,29,30,31,32,33,34,35,36,37,38,39,40,41,42,43,44,45,46,48,49,50,51,0,1,2,3,4,5,6,7,8,9,10,11,12,13,14,15,16,17,18,19,20,21,22,23,24,25,26,27,28,29,30,31,32,33,34,35,36,37,39,40,41,42,43,44,45,46,49,50,1,2,4,8,13,15,24,0,6,14,20,34,46,0,0,1,2,3,4,5,6,7,8,9,10,11,12,13,14,15,16,17,18,19,20,21,22,23,24,25,26,27,28,29,30,31,33,34,35,37,38,39,40,41,42,43,44,45,46,48,49,50,51,0,1,2,6,10,11,0,1,2,3,4,10,11,0,1,2,3,4,5,6,7,8,9,10,11,12,13,15,16,17,18,19,20,21,22,23,24,25,27,28,29,30,31,32,33,34,35,36,37,38,39,40,41,43,44,45,48,49,51,0,1,2,3,4,5,6,7,8,9,10,11,12,13,14,15,16,17,18,19,20,21,22,23,24,25,26,27,28,29,30,31,32,33,34,35,36,37,38,39,40,41,42,43,45,49,50,51,0,1,2,3,4,11,0,0,1,2,3,4,8,9,0,1,2,3,4,5,6,7,8,9,10,11,12,13,14,15,16,17,18,20,21,22,23,24,25,26,27,28,29,30,31,32,33,34,0,3,8,27,0,1,2,3,4,5,6,8,0,7,7,33,0,1,2,3,4,5,6,7,8,10,11,12,13,14,15,16,17,18,20,21,22,24,25,26,28,37,38,39,42,43,51,0,0,0,1,2,3,4,5,6,7,8,9,10,11,12,13,14,15,16,17,18,20,21,22,23,24,28,29,30,35,16,19,22,23,24,25,26,27,28,29,30,32,33,37,39,40,42,12,15,17,18,6,7,8,9,10,11,12,13],"categories_nodes":[0,1,2,3,6,9,13,14,15,16,18,19,20,21,22,23,24,27,28,29,30,31,32,33,36,37,38,39,41,42,43,44,45,48,49,51,53,54,59,60,61,65,66,67,68,69,70,72,75,76,79,83,84,85,86,90,91,96,97,99,102],"categories_segments":[0,1,16,25,29,33,46,47,70,77,90,91,115,161,202,219,220,221,252,295,297,299,321,327,328,373,374,375,376,425,475,483,516,531,573,609,660,708,715,721,722,771,777,784,830,878,884,885,892,926,930,938,939,940,942,973,974,975,1003,1020,1024],"categories_sizes":[1,15,9,4,4,13,1,23,7,13,1,24,46,41,17,1,1,31,43,2,2,22,6,1,45,1,1,1,49,50,8,33,15,42,36,51,48,7,6,1,49,6,7,46,48,6,1,7,34,4,8,1,1,2,31,1,1,28,17,4,8],"default_left":[1,1,1,1,0,0,1,0,0,1,0,0,0,1,1,1,1,0,1,1,1,1,1,1,1,0,0,1,1,1,1,1,1,1,0,0,1,1,1,1,0,1,1,1,1,1,0,0,1,1,0,1,0,1,1,0,0,0,0,1,1,1,0,0,0,1,1,1,1,1,1,0,1,0,0,1,1,0,0,1,0,0,0,1,1,1,1,0,0,0,1,1,0,0,0,0,1,1,0,1,0,0,1,0,0,0,0,0,0,0,0,0,0,0,0,0,0,0,0,0,0,0,0,0,0,0,0,0,0,0,0,0,0,0,0,0,0,0,0,0,0,0,0,0,0,0,0,0,0,0,0],"id":8,"left_children":[1,3,5,7,-1,9,11,-1,-1,13,15,17,19,21,23,25,27,29,31,33,35,37,39,41,43,-1,-1,45,47,49,51,53,55,57,59,-1,61,63,65,67,69,71,73,75,77,79,-1,-1,81,83,85,87,-1,89,91,93,-1,95,97,99,101,103,-1,-1,-1,105,107,109,111,113,115,-1,117,-1,-1,119,121,-1,-1,123,-1,-1,-1,125,127,129,131,-1,133,-1,135,137,-1,-1,-1,139,141,143,-1,145,-1,147,149,-1,-1,-1,-1,-1,-1,-1,-1,-1,-1,-1,-1,-1,-1,-1,-1,-1,-1,-1,-1,-1,-1,-1,-1,-1,-1,-1,-1,-1,-1,-1,-1,-1,-1,-1,-1,-1,-1,-1,-1,-1,-1,-1,-1,-1,-1,-1,-1],"loss_changes":[1.4661461E5,9.197016E3,1.9593574E4,2.888789E3,0E0,2.3597192E3,6.369292E3,0E0,0E0,1.1413396E3,2.2020166E2,4.2799746E3,2.1018672E3,3.588318E2,7.883212E1,3.6925225E0,8.43584E1,5.245249E3,4.0664277E3,6.6715234E2,3.1812836E1,1.4380444E2,2.3638367E2,8.24046E1,1.22475395E1,0E0,0E0,7.982568E1,6.725391E1,3.0885508E3,6.2252563E1,3.397705E1,5.704883E1,6.3777246E2,3.9825684E2,0E0,5.421501E0,2.9423828E1,3.576526E1,1.0843445E2,6.5278854E1,2.194246E1,3.601911E0,9.577773E0,3.5762863E0,1.2989746E1,0E0,0E0,2.2325592E0,1.8393304E2,4.0761914E2,4.7139404E1,0E0,8.865708E0,6.858261E0,6.457031E1,0E0,3.531477E2,2.2743164E2,2.5350757E2,3.9252148E2,4.1269436E0,0E0,0E0,0E0,1.670105E1,9.162994E0,4.3305115E1,3.493521E1,2.8293537E1,2.9555443E1,0E0,8.247288E0,0E0,0E0,8.5325E-1,2.2014542E0,0E0,0E0,2.4467773E0,0E0,0E0,0E0,1.1111078E2,6.632385E1,7.330725E1,2.0450684E2,0E0,5.0875244E0,0E0,6.914834E0,1.09673195E1,0E0,0E0,0E0,5.1608203E2,7.674734E1,2.2010938E2,0E0,1.887024E1,0E0,3.197627E2,8.5657715E1,0E0,0E0,0E0,0E0,0E0,0E0,0E0,0E0,0E0,0E0,0E0,0E0,0E0,0E0,0E0,0E0,0E0,0E0,0E0,0E0,0E0,0E0,0E0,0E0,0E0,0E0,0E0,0E0,0E0,0E0,0E0,0E0,0E0,0E0,0E0,0E0,0E0,0E0,0E0,0E0,0E0,0E0,0E0,0E0,0E0,0E0,0E0,0E0],"parents":[2147483647,0,0,1,1,2,2,3,3,5,5,6,6,9,9,10,10,11,11,12,12,13,13,14,14,15,15,16,16,17,17,18,18,19,19,20,20,21,21,22,22,23,23,24,24,27,27,28,28,29,29,30,30,31,31,32,32,33,33,34,34,36,36,37,37,38,38,39,39,40,40,41,41,42,42,43,43,44,44,45,45,48,48,49,49,50,50,51,51,53,53,54,54,55,55,57,57,58,58,59,59,60,60,61,61,65,65,66,66,67,67,68,68,69,69,70,70,72,72,75,75,76,76,79,79,83,83,84,84,85,85,86,86,88,88,90,90,91,91,95,95,96,96,97,97,99,99,101,101,102,102],"right_children":[2,4,6,8,-1,10,12,-1,-1,14,16,18,20,22,24,26,28,30,32,34,36,38,40,42,44,-1,-1,46,48,50,52,54,56,58,60,-1,62,64,66,68,70,72,74,76,78,80,-1,-1,82,84,86,88,-1,90,92,94,-1,96,98,100,102,104,-1,-1,-1,106,108,110,112,114,116,-1,118,-1,-1,120,122,-1,-1,124,-1,-1,-1,126,128,130,132,-1,134,-1,136,138,-1,-1,-1,140,142,144,-1,146,-1,148,150,-1,-1,-1,-1,-1,-1,-1,-1,-1,-1,-1,-1,-1,-1,-1,-1,-1,-1,-1,-1,-1,-1,-1,-1,-1,-1,-1,-1,-1,-1,-1,-1,-1,-1,-1,-1,-1,-1,-1,-1,-1,-1,-1,-1,-1,-1,-1,-1],"split_conditions":[NaN,NaN,NaN,NaN,5.198524E0,2.019E3,NaN,1.0383243E1,6.4055214E0,NaN,1E0,9E0,2.019E3,NaN,NaN,NaN,NaN,5E1,NaN,NaN,NaN,NaN,NaN,NaN,NaN,1.9589446E-1,-3.8849372E-2,NaN,NaN,NaN,NaN,NaN,NaN,NaN,1E0,6.555534E-1,NaN,NaN,NaN,NaN,9.5E-1,NaN,NaN,NaN,NaN,NaN,9.977383E-1,1.0435705E0,NaN,NaN,9.5E-1,NaN,5.928143E-2,NaN,NaN,9.5E-1,1.0951183E0,9E0,1.9E1,NaN,NaN,NaN,4.357275E-1,1.1694564E0,7.972505E-1,NaN,NaN,NaN,NaN,NaN,NaN,5.13597E-1,NaN,7.573737E-2,-8.1092075E-2,NaN,NaN,-7.912506E-3,-2.3672241E-1,NaN,1.1302658E0,4.159905E-1,6.50369E-1,NaN,NaN,NaN,NaN,1.4908319E0,9.5E-1,9.350488E-2,NaN,NaN,-2.9527596E-1,6.293605E-1,1.4760499E0,9E0,NaN,NaN,-1.3262972E0,NaN,-2.1173427E0,9E0,NaN,3.2725212E-1,1.2095769E-1,7.752271E-1,5.738924E-1,5.44411E-1,3.4818852E-1,9.28824E-1,5.6761086E-1,6.488707E-1,2.853139E-1,8.86363E-2,-6.4157957E-1,2.929657E-1,5.1424317E-2,2.617709E-1,1.1238462E-1,1.024205E-1,2.5466913E-3,-8.8323E-2,-1.9730893E-1,1.5923951E0,1.2503155E0,1.0087863E-1,-2.1796134E-1,-2.0110539E-1,-3.9672118E-1,-1.3856715E0,-2.3096035E0,-7.5993264E-1,-1.0606335E0,4.771712E-1,7.8860664E-1,1.3400199E-1,-9.517995E-2,-8.418756E-2,-2.4415573E-1,-1.0691462E0,-4.6146137E-1,1.8454403E-1,-3.066618E-1,-6.3529897E-1,-9.9943584E-1,-9.6492505E-1,-1.433526E0,-9.203417E-1,-3.6258924E-1,-1.083993E0,-1.4077011E0],"split_indices":[4,8,8,15,0,13,8,0,0,8,3,10,13,7,1,15,8,12,7,1,1,1,1,2,2,0,0,1,1,8,1,1,15,2,3,0,1,2,2,2,3,1,1,15,1,8,0,0,1,1,3,1,0,1,1,3,0,10,12,1,2,1,0,0,0,15,15,1,1,1,2,0,15,0,0,1,1,0,0,15,0,0,0,2,8,1,1,0,3,0,2,2,0,0,0,12,1,1,0,1,0,10,1,0,0,0,0,0,0,0,0,0,0,0,0,0,0,0,0,0,0,0,0,0,0,0,0,0,0,0,0,0,0,0,0,0,0,0,0,0,0,0,0,0,0,0,0,0,0,0,0],"split_type":[1,1,1,1,0,0,1,0,0,1,0,0,0,1,1,1,1,0,1,1,1,1,1,1,1,0,0,1,1,1,1,1,1,1,0,0,1,1,1,1,0,1,1,1,1,1,0,0,1,1,0,1,0,1,1,0,0,0,0,1,1,1,0,0,0,1,1,1,1,1,1,0,1,0,0,1,1,0,0,1,0,0,0,1,1,1,1,0,0,0,1,1,0,0,0,0,1,1,0,1,0,0,1,0,0,0,0,0,0,0,0,0,0,0,0,0,0,0,0,0,0,0,0,0,0,0,0,0,0,0,0,0,0,0,0,0,0,0,0,0,0,0,0,0,0,0,0,0,0,0,0],"sum_hessian":[5.347E3,1.34E2,5.213E3,8E1,5.4E1,1.469E3,3.744E3,5.9E1,2.1E1,1.089E3,3.8E2,1.93E3,1.814E3,7.41E2,3.48E2,1.3E1,3.67E2,1.449E3,4.81E2,1.743E3,7.1E1,3.4E2,4.01E2,2.02E2,1.46E2,6E0,7E0,2.88E2,7.9E1,1.261E3,1.88E2,2.87E2,1.94E2,9.81E2,7.62E2,2.8E1,4.3E1,7.9E1,2.61E2,2.7E2,1.31E2,1.08E2,9.4E1,8.8E1,5.8E1,1.46E2,1.42E2,4.3E1,3.6E1,6.66E2,5.95E2,1.81E2,7E0,1.28E2,1.59E2,1.01E2,9.3E1,4.89E2,4.92E2,7.8E1,6.84E2,2.8E1,1.5E1,3.9E1,4E1,1.53E2,1.08E2,1.36E2,1.34E2,1.2E1,1.19E2,1.4E1,9.4E1,8E0,8.6E1,2.2E1,6.6E1,5E0,5.3E1,8.1E1,6.5E1,1.6E1,2E1,2.48E2,4.18E2,3.7E1,5.58E2,6E0,1.75E2,1.9E1,1.09E2,1.08E2,5.1E1,8E0,9.3E1,4.18E2,7.1E1,4.19E2,7.3E1,4.8E1,3E1,4.09E2,2.75E2,1.3E1,1.5E1,8.8E1,6.5E1,7.9E1,2.9E1,2.8E1,1.08E2,1.8E1,1.16E2,4E0,8E0,5.2E1,6.7E1,4.8E1,4.6E1,1.1E1,1.1E1,4.9E1,1.7E1,3E1,5.1E1,1.28E2,1.2E2,1.79E2,2.39E2,2.5E1,1.2E1,2.78E2,2.8E2,1E1,1.65E2,7E0,1.02E2,4.5E1,6.3E1,1.09E2,3.09E2,3.8E1,3.3E1,1.69E2,2.5E2,3E1,1.8E1,3.35E2,7.4E1,1.82E2,9.3E1],"tree_param":{"num_deleted":"0","num_feature":"16","num_nodes":"151","size_leaf_vector":"1"}},{"base_weights":[-9.379621E-3,2.4706171E1,-6.0577106E-1,2.9509226E1,1.6578514E1,1.7268951E0,-1.5317259E0,8.934172E0,2.5608599E1,3.5308027E0,5.091797E0,3.3705342E0,1.1680235E0,-5.843602E-1,-2.5441048E0,6.7157845E0,4.8674946E0,4.7929522E-1,3.4744895E0,1.7061176E0,3.0562745E-2,-2.2661483E0,2.421469E-1,-2.7271771E0,1.3912747E0,3.2274374E-1,-2.8887767E-2,3.7186027E0,2.4963067E0,1.2023293E0,2.258979E0,3.491023E-1,-3.9232966E-1,-1.1065652E0,-3.9974833E0,1.8917521E0,-1.4737685E0,-1.591635E0,-3.0253837E0,5.4056495E-2,1.4971726E0,3.967565E0,7.637439E-1,7.854964E-1,2.2522135E0,-9.1614103E-1,1.2657402E0,3.229137E0,2.0201955E0,8.4359896E-1,-6.320255E-3,-4.727287E-2,-5.56244E-1,-2.6727962E-1,-1.2525612E0,-1.9530475E0,-3.8595052E0,-3.9087066E-1,3.2427886E0,-2.4662872E-1,-2.492935E0,-3.247954E0,-1.3981268E0,-2.3051827E0,-4.5027137E0,1.625651E0,2.671331E-1,1.0754098E0,8.036829E-1,2.5262302E-1,5.5310476E-1,2.230718E0,1.0493544E0,3.6818902E0,6.458062E-1,2.260023E0,1.677848E0,1.0536449E0,5.257353E-1,5.758257E-2,-8.917156E-2,2.534889E-3,-7.4161194E-2,-1.0217284E-1,-2.109844E-1,1.4378257E-1,-1.6249092E-1,-1.0972177E0,-1.5182027E0,-3.5426915E0,-1.170839E0,1.2369267E-1,-5.11194E-1,2.4452977E0,4.0503917E0,1.6508028E-1,-1.1795174E0,-1.8822279E0,-2.9775956E0,-1.2025566E0,-2.5478563E0,-1.0577502E0,-1.7341564E0,-3.3890586E0,-1.9776444E0,-3.2960625E0,-4.77201E0,1.7814051E0,1.0646884E0,6.726542E-1,4.000776E-1,3.5104164E-1,1.4072694E-1,1.0126042E0,6.231332E-1,7.191731E-1,4.9407715E-1,4.3528005E-1,2.4987033E-1,3.2652023E-1,2.0724708E-1,5.0858175E-4,1.3906357E-1,2.7539906E-1,-6.712032E-2,-1.7378537E-1,-3.3658588E-1,-2.8476936E-1,-4.9877068E-1,-6.462189E-1,-1.0282578E0,1.04075655E-1,-7.7940576E-2,-6.567383E-2,-3.0361533E-1,7.1857303E-1,4.6849012E-1,1.1465255E0,8.5184187E-1,1.800788E-1,-1.7641912E-1,-1.826246E-1,-3.8729563E-1,-3.5784945E-1,-9.2753696E-1,-8.8775826E-1,-6.274592E-1,-3.5340774E-1,-6.7409486E-1,-1.469061E-1,-3.3834273E-1,-3.5310742E-1,-5.006493E-1,-6.2059695E-1,-8.981521E-1,-1.0723704E0,-4.2445758E-1,-5.2645177E-1,-9.248502E-1,-1.0282221E0,-1.23254E0,5.0774616E-1,3.135005E-1,3.6327124E-1,-0E0],"categories":[0,1,2,3,6,7,8,11,13,15,1,2,3,4,5,6,7,9,10,0,1,6,8,11,0,3,4,5,6,8,11,1,2,3,4,5,6,7,8,9,11,12,13,15,0,0,0,1,2,3,4,5,0,1,2,3,4,5,6,7,8,9,10,0,1,2,3,4,5,6,7,8,9,0,1,2,3,4,5,6,3,4,5,6,7,8,0,1,2,3,4,5,6,7,8,9,0,1,6,0,1,2,3,4,5,6,7,8,1,2,3,4,5,6,7,8,9,10,11,12,13,14,15,0,1,2,3,4,5,6,7,8,9,10,11,12,13,14,15,16,17,18,19,20,21,22,23,24,25,26,27,28,0,1,2,3,4,5,6,7,8,9,0,0,0,1,2,3,4,5,6,7,8,0,1,2,0,1,2,3,4,3,4,0,0,0,0,0,1,2,4,6,0,1,2,3,4,5,6,7,0,1,2,3,4,5,6,0,1,2,3,4,5,6,7,8,9,0,1,2,3,4,5,0,0,0,1,2,3,4,5,6,7,0,1,2,3,4,5,6,7,10,11,0,1,2,3,4,10,11,0,1,2,3,4,5,6,7,8,9,10,0,1,2,3,4,5,6,7,8,9,10,11,12,13,14,15,16,17,18,19,20,21,22,23,24,25,0,1,2,3,4,5,6,7,8,9,10,11,12,13,14,15,16,17,0,1,2,3,9,3,4,5,0,1,2,3,4,5,0,0,1,2,0,1,2,3,4,5,7,2,3,4,5,6,7,8,0,0,1,2,0,0,5,11,0,0,0,1,2,3,4,8,9,11,0,0,0,1,2,3,4,5,6,7,8,10,0,1,2,3,4,5,6,7,8,9],"categories_nodes":[0,2,3,4,6,8,18,20,21,27,28,30,31,32,33,35,38,40,41,44,46,47,48,49,50,51,52,53,54,56,57,59,60,62,64,65,71,72,73,75,76,77,78,85,87,88,89,91,92,93,94,95,96,97,100,101,102,103,105,106,107,108],"categories_segments":[0,1,10,19,20,24,31,44,45,46,52,63,73,80,86,96,97,99,108,123,152,162,163,164,173,176,181,183,184,185,186,187,192,200,207,217,223,224,225,233,243,250,261,287,305,310,313,319,320,323,330,337,338,341,342,345,346,347,355,356,357,367],"categories_sizes":[1,9,9,1,4,7,13,1,1,6,11,10,7,6,10,1,2,9,15,29,10,1,1,9,3,5,2,1,1,1,1,5,8,7,10,6,1,1,8,10,7,11,26,18,5,3,6,1,3,7,7,1,3,1,3,1,1,8,1,1,10,10],"default_left":[1,0,1,1,1,0,1,0,1,0,0,0,0,0,0,0,0,0,1,0,1,1,0,0,0,0,0,1,1,0,1,1,1,1,0,1,0,0,1,0,1,1,0,0,1,0,1,1,1,1,1,1,1,1,1,0,1,1,0,1,1,0,1,0,1,1,0,0,0,0,0,1,1,1,0,1,1,1,1,0,0,0,0,0,0,1,0,1,1,1,0,1,1,1,1,1,1,1,0,0,1,1,1,1,0,1,1,1,1,0,0,0,0,0,0,0,0,0,0,0,0,0,0,0,0,0,0,0,0,0,0,0,0,0,0,0,0,0,0,0,0,0,0,0,0,0,0,0,0,0,0,0,0,0,0,0,0,0,0,0,0,0,0,0,0],"id":9,"left_children":[1,3,5,7,9,11,13,-1,15,-1,-1,17,19,21,23,-1,-1,25,27,29,31,33,35,37,39,-1,-1,41,43,45,47,49,51,53,55,57,59,61,63,-1,65,67,-1,-1,69,-1,71,73,75,77,79,81,83,85,87,-1,89,91,93,95,97,99,101,103,105,107,-1,-1,-1,-1,-1,109,111,113,-1,115,117,119,121,-1,-1,-1,-1,-1,-1,123,-1,125,127,129,-1,131,133,135,137,139,141,143,145,-1,147,149,151,153,155,157,159,161,163,-1,-1,-1,-1,-1,-1,-1,-1,-1,-1,-1,-1,-1,-1,-1,-1,-1,-1,-1,-1,-1,-1,-1,-1,-1,-1,-1,-1,-1,-1,-1,-1,-1,-1,-1,-1,-1,-1,-1,-1,-1,-1,-1,-1,-1,-1,-1,-1,-1,-1,-1,-1,-1,-1,-1,-1],"loss_changes":[7.69513E4,4.2965938E3,1.1013996E4,1.3491719E3,8.353027E1,1.3256973E3,3.498249E3,0E0,1.1415234E2,0E0,0E0,1.0743164E2,6.6228345E2,2.6241208E3,1.2751084E3,0E0,0E0,7.8534493E0,7.33208E1,2.0093701E2,4.7137966E1,1.2427573E3,3.5864558E3,5.646846E2,8.884201E0,0E0,0E0,2.1784668E1,5.1364136E0,1.27621155E2,7.270264E1,3.5411896E1,8.274126E0,4.502899E1,1.07982666E2,1.9943562E3,7.752136E2,1.071687E2,1.4068545E3,0E0,8.567352E-1,4.2215576E1,0E0,0E0,8.9901733E-1,0E0,7.662579E1,4.096985E0,1.823059E1,4.571842E0,1.0731979E1,8.552555E-1,3.4701176E0,9.922306E0,1.0654297E1,0E0,5.9871094E1,1.5102921E1,2.4956836E2,1.0919998E2,9.323486E1,2.9733307E1,3.368103E1,3.1079346E2,1.2343164E2,1.6860199E0,0E0,0E0,0E0,0E0,0E0,1.6317047E1,5.9296295E1,6.4752197E0,0E0,1.5820007E1,8.13855E0,9.8911285E-1,8.743267E-1,0E0,0E0,0E0,0E0,0E0,0E0,1.3000502E1,0E0,2.1898804E1,1.7689606E1,1.07145996E2,0E0,6.6211457E0,3.4349266E1,4.890625E1,5.2952393E1,1.0516525E2,1.3956886E1,1.103548E2,3.6878662E1,0E0,2.6394196E0,2.4013397E1,1.043573E1,4.86084E1,3.4186353E2,4.15506E1,3.8791016E1,2.2738953E0,7.2175837E0,0E0,0E0,0E0,0E0,0E0,0E0,0E0,0E0,0E0,0E0,0E0,0E0,0E0,0E0,0E0,0E0,0E0,0E0,0E0,0E0,0E0,0E0,0E0,0E0,0E0,0E0,0E0,0E0,0E0,0E0,0E0,0E0,0E0,0E0,0E0,0E0,0E0,0E0,0E0,0E0,0E0,0E0,0E0,0E0,0E0,0E0,0E0,0E0,0E0,0E0,0E0,0E0,0E0,0E0,0E0,0E0],"parents":[2147483647,0,0,1,1,2,2,3,3,4,4,5,5,6,6,8,8,11,11,12,12,13,13,14,14,17,17,18,18,19,19,20,20,21,21,22,22,23,23,24,24,27,27,28,28,29,29,30,30,31,31,32,32,33,33,34,34,35,35,36,36,37,37,38,38,40,40,41,41,44,44,46,46,47,47,48,48,49,49,50,50,51,51,52,52,53,53,54,54,56,56,57,57,58,58,59,59,60,60,61,61,62,62,63,63,64,64,65,65,71,71,72,72,73,73,75,75,76,76,77,77,78,78,85,85,87,87,88,88,89,89,91,91,92,92,93,93,94,94,95,95,96,96,97,97,98,98,100,100,101,101,102,102,103,103,104,104,105,105,106,106,107,107,108,108],"right_children":[2,4,6,8,10,12,14,-1,16,-1,-1,18,20,22,24,-1,-1,26,28,30,32,34,36,38,40,-1,-1,42,44,46,48,50,52,54,56,58,60,62,64,-1,66,68,-1,-1,70,-1,72,74,76,78,80,82,84,86,88,-1,90,92,94,96,98,100,102,104,106,108,-1,-1,-1,-1,-1,110,112,114,-1,116,118,120,122,-1,-1,-1,-1,-1,-1,124,-1,126,128,130,-1,132,134,136,138,140,142,144,146,-1,148,150,152,154,156,158,160,162,164,-1,-1,-1,-1,-1,-1,-1,-1,-1,-1,-1,-1,-1,-1,-1,-1,-1,-1,-1,-1,-1,-1,-1,-1,-1,-1,-1,-1,-1,-1,-1,-1,-1,-1,-1,-1,-1,-1,-1,-1,-1,-1,-1,-1,-1,-1,-1,-1,-1,-1,-1,-1,-1,-1,-1,-1],"split_conditions":[NaN,3.6096E4,NaN,NaN,NaN,7.2784E4,NaN,8.934172E0,NaN,3.5308027E0,5.091797E0,1E0,8.9272E4,3.295E4,2.019E3,6.7157845E0,4.8674946E0,6.8211E4,NaN,7.8833E4,NaN,NaN,6.9997E4,1.105E4,9.5E-1,3.2274374E-1,-2.8887767E-2,NaN,NaN,9E-1,NaN,NaN,NaN,NaN,9E-1,NaN,8.0631E4,1E0,NaN,5.4056495E-2,NaN,NaN,7.637439E-1,7.854964E-1,NaN,-9.1614103E-1,NaN,NaN,NaN,NaN,NaN,NaN,NaN,NaN,NaN,-1.9530475E0,NaN,NaN,4.9661E4,NaN,NaN,9E-1,NaN,5.7561E4,NaN,NaN,2.671331E-1,1.0754098E0,8.036829E-1,2.5262302E-1,5.5310476E-1,NaN,NaN,NaN,6.458062E-1,NaN,NaN,NaN,NaN,5.758257E-2,-8.917156E-2,2.534889E-3,-7.4161194E-2,-1.0217284E-1,-2.109844E-1,NaN,-1.6249092E-1,NaN,NaN,NaN,-1.170839E0,NaN,NaN,NaN,NaN,NaN,NaN,NaN,8.3329E4,-1.2025566E0,NaN,NaN,NaN,NaN,1E0,NaN,NaN,NaN,NaN,6.726542E-1,4.000776E-1,3.5104164E-1,1.4072694E-1,1.0126042E0,6.231332E-1,7.191731E-1,4.9407715E-1,4.3528005E-1,2.4987033E-1,3.2652023E-1,2.0724708E-1,5.0858175E-4,1.3906357E-1,2.7539906E-1,-6.712032E-2,-1.7378537E-1,-3.3658588E-1,-2.8476936E-1,-4.9877068E-1,-6.462189E-1,-1.0282578E0,1.04075655E-1,-7.7940576E-2,-6.567383E-2,-3.0361533E-1,7.1857303E-1,4.6849012E-1,1.1465255E0,8.5184187E-1,1.800788E-1,-1.7641912E-1,-1.826246E-1,-3.8729563E-1,-3.5784945E-1,-9.2753696E-1,-8.8775826E-1,-6.274592E-1,-3.5340774E-1,-6.7409486E-1,-1.469061E-1,-3.3834273E-1,-3.5310742E-1,-5.006493E-1,-6.2059695E-1,-8.981521E-1,-1.0723704E0,-4.2445758E-1,-5.2645177E-1,-9.248502E-1,-1.0282221E0,-1.23254E0,5.0774616E-1,3.135005E-1,3.6327124E-1,-0E0],"split_indices":[4,0,8,15,2,0,8,0,15,0,0,3,0,0,13,0,0,0,8,0,2,7,0,0,3,0,0,15,15,3,15,15,15,15,3,7,0,3,8,0,15,8,0,0,14,0,15,2,2,15,15,14,15,2,2,0,2,2,0,15,15,3,15,0,15,14,0,0,0,0,0,2,2,14,0,15,15,15,14,0,0,0,0,0,0,14,0,15,15,15,0,15,15,15,15,2,15,2,0,0,15,2,2,15,3,2,2,15,15,0,0,0,0,0,0,0,0,0,0,0,0,0,0,0,0,0,0,0,0,0,0,0,0,0,0,0,0,0,0,0,0,0,0,0,0,0,0,0,0,0,0,0,0,0,0,0,0,0,0,0,0,0,0,0,0],"split_type":[1,0,1,1,1,0,1,0,1,0,0,0,0,0,0,0,0,0,1,0,1,1,0,0,0,0,0,1,1,0,1,1,1,1,0,1,0,0,1,0,1,1,0,0,1,0,1,1,1,1,1,1,1,1,1,0,1,1,0,1,1,0,1,0,1,1,0,0,0,0,0,1,1,1,0,1,1,1,1,0,0,0,0,0,0,1,0,1,1,1,0,1,1,1,1,1,1,1,0,0,1,1,1,1,0,1,1,1,1,0,0,0,0,0,0,0,0,0,0,0,0,0,0,0,0,0,0,0,0,0,0,0,0,0,0,0,0,0,0,0,0,0,0,0,0,0,0,0,0,0,0,0,0,0,0,0,0,0,0,0,0,0,0,0,0],"sum_hessian":[5.219E3,1.22E2,5.097E3,7.5E1,4.7E1,1.448E3,3.649E3,2.2E1,5.3E1,3.7E1,1E1,3.66E2,1.082E3,1.886E3,1.763E3,3.3E1,2E1,1.3E1,3.53E2,7.34E2,3.48E2,6.21E2,1.265E3,1.685E3,7.8E1,5E0,8E0,2.8E2,7.3E1,3.86E2,3.48E2,1.99E2,1.49E2,3.73E2,2.48E2,6.45E2,6.2E2,3.52E2,1.333E3,7E0,7.1E1,1.85E2,9.5E1,1.4E1,5.9E1,4E0,3.82E2,6.6E1,2.82E2,8.3E1,1.16E2,4.9E1,1E2,5.6E1,3.17E2,6E0,2.42E2,2.4E2,4.05E2,2.82E2,3.38E2,3.5E1,3.17E2,8.98E2,4.35E2,5E1,2.1E1,9.5E1,9E1,4E0,5.5E1,6.8E1,3.14E2,3.2E1,3.4E1,1.62E2,1.2E2,4.8E1,3.5E1,6.9E1,4.7E1,4E1,9E0,7.4E1,2.6E1,2.8E1,2.8E1,2.04E2,1.13E2,1.89E2,5.3E1,4.5E1,1.95E2,2.06E2,1.99E2,1.96E2,8.6E1,1.52E2,1.86E2,8E0,2.7E1,1.6E2,1.57E2,2.06E2,6.92E2,8.2E1,3.53E2,3.7E1,1.3E1,3.1E1,3.7E1,1.63E2,1.51E2,1.9E1,1.3E1,3E1,1.32E2,9.6E1,2.4E1,1.5E1,3.3E1,4E0,3.1E1,8E0,2E1,9.5E1,1.09E2,7.4E1,3.9E1,9.2E1,9.7E1,2.7E1,1.8E1,1.5E2,4.5E1,9.3E1,1.13E2,7.5E1,1.24E2,1.19E2,7.7E1,4.6E1,4E1,1.29E2,2.3E1,5.7E1,1.29E2,7E0,2E1,7.3E1,8.7E1,9.5E1,6.2E1,6.8E1,1.38E2,5E1,6.42E2,3E1,5.2E1,1.64E2,1.89E2,1.9E1,1.8E1,9E0,4E0],"tree_param":{"num_deleted":"0","num_feature":"16","num_nodes":"165","size_leaf_vector":"1"}}]},"name":"gbtree"},"learner_model_param":{"base_score":"1.1689254E2","boost_from_average":"1","num_class":"0","num_feature":"16","num_target":"1"},"objective":{"name":"reg:squarederror","reg_loss_param":{"scale_pos_weight":"1"}}},"version":[2,0,3]}